560 100
the -0.001721916 0.0016842897 0.0050332877 0.009762366 -0.009305104 -0.01025689 0.007524572 0.012980113 -0.0069068153 -0.004949407 0.0071263243 -0.0053114295 -0.0044337637 0.008656028 -0.004443503 -0.002173201 0.0037970536 -0.0012084527 -0.008363969 -0.013521167 0.007848519 0.006375077 0.008032032 -0.00048015628 0.005745511 -0.00284608 -0.002788315 0.0044061113 -0.0100270035 -0.0036836318 -0.004343339 -0.00044128942 0.010814778 -0.007866233 -0.0039495355 0.00093357026 0.008683812 -0.006785682 -0.0015993885 -0.0073149493 -0.009132654 0.0029196849 -0.010078733 -0.0038860417 0.0020609188 -0.0010990762 -0.008909019 0.0086586205 0.0057246517 0.010200248 -0.007045909 0.0032391567 -0.0041305632 0.0011248592 0.0074538584 -0.0032946747 0.0055811685 -0.0076622516 -0.0056696306 0.009761909 -0.0014679384 0.0005085349 -0.0037049812 -0.008436213 -0.0045459517 0.004013876 -4.3674627e-05 0.007409661 -0.0049596257 0.005709384 0.0045906804 0.009259746 -0.00018432536 -0.009294252 0.006615377 0.0015593597 0.007530357 -0.0010945566 -0.0038245525 -0.007647097 -0.0020032804 0.0014767805 0.0033483626 0.01039231 -0.007083537 0.0028859524 0.006050576 -0.0026925867 -0.0010513251 0.0077671623 0.0040788953 0.0018489149 0.003428962 0.0011365705 0.012624645 0.007689968 -0.008207819 -0.008864693 0.0019107728 0.006695048
solitaire -0.009466681 0.0049651447 0.004999816 0.006436508 0.0073427474 -0.00865554 0.0019820305 0.009229701 -0.0042361226 -0.00699389 -0.00050936185 -0.0116245495 -0.005390776 0.008818953 0.0035350455 0.0071785 0.007734122 0.0057664644 -0.0038843807 -0.0039242213 0.0028322474 -0.0034836615 0.009479138 -0.010618614 0.0063573853 0.0035130582 -0.0061328183 0.0034460728 -0.0038486896 0.006918687 0.012420099 -0.004031986 0.0005463873 -0.006096427 0.002483767 0.005094566 0.0074015404 0.0054295976 0.0084426515 0.007375672 0.008221234 -0.008684232 -0.010084223 -7.3711155e-05 -0.0013002875 0.0073242513 0.0049347538 -0.0022792856 0.0021555196 0.002520618 0.008771254 -0.010747048 -0.00022941403 0.0033922726 -0.0017907454 0.009266779 0.00979789 0.0059008175 -0.0024087485 0.008044402 -0.008455093 0.0032059809 -0.004325238 -0.0054934826 0.0011433413 0.0068187695 0.0083527295 -0.004114247 0.0058640833 0.009452257 -0.0045484807 -0.008249143 0.006541646 0.0064571397 0.0009022717 -0.005818197 -0.007031329 -0.0028555784 0.004282009 -0.0026231697 -0.010283708 0.0027279193 0.0033388657 -0.003777824 0.00017399907 -0.0011995134 -1.0544834e-05 -0.008235135 0.004248944 -0.0041140746 0.0030968813 -0.00017810955 0.0022864863 -0.007120092 -0.0003134259 0.004590576 0.0059887418 -0.0039556823 -0.0085384175 0.0048290743
. -0.00051644037 0.0038748237 -0.006814114 -0.00084163726 0.007559785 0.005465007 -0.0031882403 0.0050617913 -0.0093660755 0.0053481413 -0.0046565053 -0.005449257 0.0094504105 0.0021130804 0.0078489 -0.0063705123 0.005617671 0.008642597 -0.008503469 -0.0075327083 -0.006650899 -0.0040764255 -0.002912237 -0.009148613 0.0076292553 -0.004597549 0.007477353 0.0045107147 -0.008101666 0.0041806647 0.0072096144 -0.0072510443 -0.0065522348 -0.0027087945 -0.009598423 0.00015220181 -2.699327e-05 0.0025852865 0.0005739648 -0.0023094455 -0.0052099386 0.00058745913 -0.0017065429 0.007031135 0.0052632145 0.0039319023 0.00070844014 -0.0032794687 -0.0039777495 -0.0006108838 0.0022555427 -0.003502638 -0.007178035 -0.0077800513 -0.009808551 -0.005030195 -0.001303135 -0.0047650062 -0.0076662838 -0.0033437945 0.004257736 -0.0036194855 0.008673562 0.0010065748 -0.009040271 0.010554383 0.00815379 0.0066805044 -0.008073955 0.007903401 0.0034585046 0.005602564 0.004956113 0.0018670338 -0.0018062566 0.009152905 0.009547079 0.0034469333 -0.0038311516 0.0006942003 0.00056034053 -0.009127062 -0.009417527 0.0017091929 0.000472006 -0.0050705913 -0.0047492865 -0.0061198287 0.0097466195 0.00065237016 -0.0028949208 0.006751075 0.009057441 -0.0036388584 0.009838737 0.007008157 0.006440083 -0.00063544355 0.009058776 -0.0069244294
, -0.008845357 0.010124313 -0.00014000648 -0.0015754821 0.0044468776 -0.005859507 0.0034119897 0.00910836 0.0049966667 -0.008307654 0.009264495 0.002529554 0.0040391083 -0.00524267 0.00876837 -0.0024414046 0.0093300585 -0.006581286 -0.008268995 0.004676768 0.0020926143 -0.0014425317 0.010106343 0.008942035 -0.010216875 0.0029432564 0.005240563 0.0030597316 0.00063856883 0.0006323444 0.002423944 -0.0036047883 -0.00642306 -0.0023353267 0.002983739 0.010430122 0.009604774 -0.0065433783 -0.0104391435 0.008404923 0.0037988687 0.0040063094 0.0055842856 -0.0024653433 0.008468936 0.0022557185 0.0020463583 -0.0029997926 -0.0027569898 -0.0019253629 0.0049877325 -0.0007685214 -0.009568863 -0.009684781 -0.0068851244 0.0006339048 0.0025300286 0.008971181 0.0044368524 -0.0041463193 0.000277193 0.0050558224 0.0079879565 -0.0016308122 0.002684254 -0.004888351 -0.00039717028 0.009165693 -0.0037172316 -0.007672798 0.005347303 -0.0034851895 -0.00047806837 0.009953209 -0.0010231287 -0.00405046 -0.0053357948 0.0067002536 -0.006538764 0.0027940052 -0.0058424124 0.0052512744 0.0032170524 0.004452 -0.0021879398 -0.0019654834 0.0088964505 0.006478291 -0.0009529486 -0.008904426 -0.0060886 -0.0001289344 -0.00089245156 -0.0021853654 0.01132485 0.0010164157 0.0063241017 -0.00850992 -0.0018107063 -0.005407159
to -0.007998212 0.0022122283 -0.0072300914 -0.0018066368 0.0037433407 0.003844508 0.0019138725 0.004603966 -0.0052770465 0.006491822 -0.0064355964 0.002165623 -0.008039148 0.0033356014 -0.0047208075 -0.004400814 -0.0025026365 0.00415321 0.0057225507 -0.007481667 0.001096184 -0.007645294 0.008567923 0.008597416 -0.0031707818 0.0011759303 -0.00030404984 0.0046796594 -0.010213693 0.0007430267 0.0089686075 0.0025136934 0.0018654539 -0.0096611865 0.0074407845 -0.0044404464 -0.0026998464 0.0029635024 -0.0017684381 -0.00012079898 0.002072151 -0.008041886 -0.010432123 0.009386269 0.0075079864 -0.0074466444 0.002576395 -0.00036448982 0.0051812106 -0.006572818 0.004880944 0.0034771108 0.009971097 -0.004514779 -0.0021805668 -0.006715544 -0.008967457 -0.009524742 -0.0023131606 -0.006314908 0.0049191914 -0.006081775 0.0027211115 0.00040179252 -0.0052336464 6.583696e-05 0.010539829 0.010420091 -0.0058021606 0.011306913 -0.006101135 0.0064100027 -0.0022713465 0.0034026334 0.004394556 0.0076091113 -0.0023042876 0.008554225 0.0068385107 -0.008764015 -0.008795094 -0.008403722 0.001762136 -0.0006623606 -0.007754804 -0.007414065 0.0083362935 0.0034113037 -0.008066068 -0.004237947 0.0048240493 -0.0035714025 0.005299363 -0.003673945 0.0045215096 -0.006375321 0.00678808 0.0035869372 0.0015241905 0.003281375
a -0.009425725 0.003027203 -0.0007786599 -0.008875559 -0.009576599 -0.0034671961 0.0052302405 0.006401459 -0.0076237777 -0.007782076 -0.005256776 -0.004849423 -0.0072210818 -0.0082554575 -0.0024810473 -0.008696331 -0.0055902684 -0.0070750327 -0.0023870745 -0.0044020745 -0.008557538 0.00010588365 0.008956396 0.006942768 -0.0075520314 -0.0034343968 0.0019083143 -0.010682379 -0.00019295886 0.0066971863 0.007674274 -0.008363299 -0.0035254334 -0.00868363 -0.0008706292 0.011277732 0.0065273256 0.0043738736 0.0040239613 -0.004855403 0.009904016 -0.008730736 -0.0082120905 -0.0018203625 0.0006130588 -0.0036860907 -0.0015189283 0.006922471 -0.0002031564 -0.00097365404 0.0033842728 -0.00934355 0.00785912 0.008531397 -0.010445642 0.0033969532 0.010648298 -0.008328156 -0.008303516 -0.007393073 0.008485773 -0.0005261097 0.009386207 -0.008567587 0.0017609898 0.0037937406 0.0012365031 0.003618607 -0.009049729 -0.0071326164 0.0018412804 0.0066963513 0.008845022 0.0055930465 0.00077667803 0.008993341 -0.009311313 0.0030193974 -0.00061715726 0.004608525 0.0065640896 -0.007600315 0.0043790173 -0.0073010065 -0.0017995463 -0.007835164 -0.004912845 0.010719991 -0.0004907715 0.0034782062 0.010803835 0.010078039 -0.008279706 -0.0024985543 0.011849866 0.00685909 -0.0011099369 -0.009981608 0.0037960925 -0.0065190266
of 0.0076313387 -0.0038270066 -0.0010878879 0.001368477 -0.00027588915 -0.00026818633 0.0066862246 0.0017250096 -0.004050597 -0.0019927751 0.0057453355 -0.00026327977 -0.0007013125 0.010254078 -0.004673477 -0.0010071015 0.009600303 0.0056785913 0.0015424467 -0.010803736 0.0014182959 -0.0016532823 0.009929144 0.00067995733 0.0011692458 0.0026678985 -0.0027287446 -0.005625345 -0.0010516994 -0.0019343724 0.008146445 0.009159169 -8.458964e-05 0.0028026027 -0.0067789434 0.0030552458 -0.00667372 -0.009023241 -0.006699703 -0.010059911 0.0074123293 -0.006785991 0.007628974 -0.0070639625 0.0044758758 0.009123055 -0.008370008 -0.01047656 -0.003945686 -0.002204125 0.0002712655 -0.009466422 -0.008637345 0.002932664 -0.008681818 -0.008523022 -0.001774735 -0.009068062 -0.007944541 -0.0081445305 -0.00033892423 -0.0046374067 0.0068619247 0.0011944209 -0.004890385 0.0068725734 -0.005641281 -0.0036866388 -0.008174608 -0.0026734602 -0.0022312622 0.006846215 -0.0020981461 0.004870508 0.007901952 -0.006920377 0.0046223328 0.0059166187 -0.0036015385 0.0072127148 0.005580717 -0.007182491 -0.0077497545 0.0041968552 -0.002216799 -0.0054847277 0.009403348 -0.004111785 -0.005528878 0.00040656107 -0.0017073605 0.001262525 -0.0034794013 2.4561132e-06 0.00058001914 0.002092424 0.008596884 -0.0065730577 -0.0009835692 0.005718487
game 0.0075727976 -0.0037201035 0.008981446 0.00860517 -0.004458089 -0.0013888796 0.004890831 -0.0017200627 -0.00653356 -0.007237174 -0.0008788033 -0.0025285622 0.004493503 -0.0012887131 -5.7800535e-06 0.0021784764 0.005394021 -0.0013240771 -0.006293151 -0.011443872 0.00033143582 0.0074213473 0.0021711802 -0.009583164 -0.008190942 0.0068428335 -0.004774549 0.005416638 -0.008130336 0.008672177 -0.0048276205 0.0036057234 -0.00025827828 -0.00727517 -0.004156035 0.000571751 -0.0051468736 -0.001641584 -0.008558197 0.0012829892 0.009334272 -0.0036202774 -0.001723714 0.0037900542 0.009930702 -0.0064251125 -0.007575976 -0.0034575965 0.009484645 0.0013998098 -0.008022939 -0.002219526 0.009513963 -0.007389089 -0.005999425 0.010006581 -0.00841416 0.0033379153 -0.00048659602 0.006896226 0.008394316 -0.0029163903 -0.0037774062 0.008654887 0.0003521339 0.0072018867 -0.008898019 0.010683184 -0.0025693274 -0.004074438 0.002532358 6.2754574e-05 0.0054552606 -0.0023661405 -0.0028112333 0.0028456629 0.008325281 -0.0051729144 0.0020511195 -0.0073565133 -0.007472506 -0.001303739 -0.009936587 0.004621153 0.00078268675 -0.0016926269 0.005085038 0.010943913 0.009603027 -0.0013843384 0.00343671 -0.002974589 -0.008246467 0.006855768 -0.00035989945 0.0008178577 -0.0013566396 -0.005552061 0.00468026 -0.0041232626
and -0.010192045 0.009779965 0.0041810465 0.009677208 0.0065363552 0.001194875 0.010514659 -0.0022611718 -0.00785258 0.0036325976 0.0035178508 -0.00788712 0.009830372 -0.002447714 0.009793552 0.00079931016 -0.005813164 -0.0032486944 -0.0074662943 -0.005243261 0.0013058234 0.010294209 0.010065997 -0.0072467234 0.0031139746 0.0026846116 -0.0035250813 -0.010063253 -0.00042875993 -0.008146621 0.00813526 -0.005461134 0.006214333 0.009650008 -0.0009503422 0.006193489 -0.0014663594 0.0068550566 0.0030535103 -0.010380061 -0.002177099 0.0024071087 -0.0009592493 -0.0009672457 9.473328e-05 -0.002249065 -0.00016342792 0.0036913534 -0.003948189 -0.0032422857 0.00062118913 -0.00053401483 -0.00019244668 -0.004714708 0.0035961405 -0.001430531 0.0027181315 6.28699e-05 0.0048254696 -0.0066487617 -0.0068297074 -0.0044347527 0.009595956 -0.0019836074 -0.011223686 0.00029492288 -0.0039782827 0.007095592 -0.010853305 0.004866086 -0.009822896 0.0017105348 0.0066178874 0.007323733 -0.0063718194 -0.005400752 -0.0067931553 -0.008212248 -0.010270713 -0.0013759945 -0.0014609076 -0.008031794 0.005698415 0.0030199818 0.0049923123 0.0021698999 0.0006985095 -0.006168423 -0.0010381159 0.0049090614 -0.0037759182 0.002163918 0.00276142 -0.0010183649 0.011586848 0.00995333 0.0029704745 0.0060853856 0.0066852747 -0.005420286
cards -0.0060203937 -0.005516649 -0.007796125 0.008943099 -0.0019141205 -0.009315555 -0.003438505 0.008296609 -0.004262349 -0.004606672 0.0015572922 -0.005583451 -0.0015156714 0.0025928584 -0.0026632722 0.008352713 0.0046079485 -0.011684824 0.00622047 -0.009779635 0.0010473217 0.005578 -0.0040984945 -0.0029238928 0.0076787765 -0.0038368222 -0.0090329405 0.008248014 -0.004117517 -0.00454646 0.010963106 0.0046239165 0.005363392 0.008907623 -0.009733835 0.0074882214 0.0024819658 0.0033907522 0.0005377498 0.0025290519 0.0048988974 0.004620478 -0.0042503783 -0.0043130736 0.0011665829 0.0017708637 -0.0041455273 0.0052592587 0.0046251686 0.008462293 0.003487295 0.007086436 -0.0014522515 0.008131645 0.0028260336 -0.0071459655 -0.0031382286 -0.003168709 0.003431571 -0.00053503877 -0.0027702816 0.007983006 0.0096666915 -0.002240125 -0.0074661956 -0.0035192664 -0.0042243353 -0.008261573 -0.00028653245 -0.0015424608 0.001840395 0.006232194 -0.003393522 -0.009654049 0.003300431 -0.0059441887 0.0025265869 -0.004078171 0.0061363187 0.0014908345 0.0027672474 -0.0037415314 -0.0032032093 0.010254106 0.00030920198 -0.0050636036 -0.007923164 0.002821126 0.008092677 0.0062516103 -0.007181356 0.009802414 0.0039744964 0.008123373 0.012003538 -0.005286595 -0.008380049 0.0044413954 0.0102802 0.0037638184
you 0.006632936 -0.0009319284 0.00792389 -0.009152678 -0.008185807 -0.0080451025 -0.0034972974 0.006869373 -0.004585857 -0.008936422 0.008335914 -0.0055711213 0.008710858 -0.003979037 0.004098192 0.004723856 0.0027664825 -0.0038231525 0.0028196475 -0.010214647 -0.0024883938 -0.0020746572 0.007896127 -0.0039259694 -0.006886957 0.0045109 -0.0012425146 -0.004221251 0.005719567 0.0039837183 -0.0024821882 0.00097378064 0.009871709 0.007491346 0.0056569967 0.0060516084 0.0027142498 -0.0023777827 -0.007092534 -0.0014285352 -0.0012986965 -0.00160907 -0.0068415375 0.007705246 -0.005544115 -0.007630907 -0.0033632684 -0.0019388096 -0.007328025 0.0011074217 -0.0048020687 -0.0018598255 -0.0074333167 0.0019869504 0.0027948904 0.000620016 -0.0049436768 -0.0021523 0.006119593 0.0039979247 -0.008892334 -0.0033669244 0.0025638312 0.0017541418 -0.01101585 0.0054164124 -0.008295723 -0.006434115 0.0024061876 -0.0018351065 0.003104774 0.009268218 -0.0029318077 0.0093704425 0.0026890764 0.0104676215 0.0057596657 -0.009412293 -0.004048436 0.0071209054 0.0051158625 0.00809119 0.005979677 0.00954916 -0.010464947 0.0049915314 -0.0049968013 0.0045103165 0.0070721563 0.0048039984 0.008630049 0.0023130425 -0.0013084977 0.006140615 -0.0042725815 0.0013615736 0.009858718 -0.0063839587 0.0044278735 -0.00800223
in 0.009503942 0.008605228 0.0013038088 0.0053840317 0.0013550704 -0.007446771 -0.0010453687 0.007723956 -0.0051892684 -0.0044249007 0.0048503065 0.0014455178 -0.0018315167 -0.002248715 0.00613486 -0.0057380632 -0.0029449053 -0.0072233044 -0.004207837 -0.00990728 -0.004313769 -0.008106289 0.0018898502 -0.008949759 -0.010122853 -0.0080654295 -0.0074257287 0.0061583556 0.0029860423 0.00040116714 -0.0020232259 -0.007252931 0.001096842 0.00020767114 -0.00026816182 0.001786932 0.0009957604 -0.00033773942 -0.008509907 -0.00664282 -0.008209574 -0.00196323 0.0014079917 0.007613253 -0.0012636278 -0.0025768906 0.009059512 -0.00023666088 -0.002201394 0.009002555 0.0029668997 -0.0057639983 0.0065266457 0.004571738 -0.007337035 9.37198e-05 0.001198255 0.0054310258 -0.0024076793 -0.002610616 0.0017688758 0.0008235525 0.0013499316 -0.0027907346 -0.0070118806 0.0078563765 0.007877742 0.008942024 -0.009260684 0.0037365996 -0.0038942886 0.009817305 0.0033178546 0.0045874286 0.0031129438 0.007071394 -0.005702862 0.007725688 -0.002816325 -0.0041693635 -0.0024421588 0.009292952 -0.0074747237 -0.0010963319 0.006436685 0.00040678773 -0.006244058 -0.005673439 0.00958284 0.0067037884 0.0055569327 -0.0027253963 -0.009361167 0.0041438094 0.008093277 -0.004818536 -0.007703891 -0.0035067943 -0.0045580803 -0.0021605913
is -0.0023863076 -0.0046660327 0.00951923 -0.008979835 0.004364686 0.0042698337 -0.00091903383 0.010515015 0.009218945 -0.0059387474 -0.006136606 -0.008226238 -0.007872983 -0.0022716445 -0.005398406 -0.008516344 0.0010689851 0.0021758203 0.006352226 -0.004279928 -0.004300052 0.001817556 0.00073982304 0.007764662 -5.044477e-05 0.0074508125 -0.008905659 0.007894357 -0.0029268812 0.008824598 -0.0064586 0.0018896062 0.0016784456 -8.66382e-05 -0.005715812 -0.008004868 -0.006903998 -0.008322809 0.0013408081 -0.00047760073 -0.0016424202 0.006227913 -0.0030128155 -0.001071644 -0.00802639 -0.010287358 0.0084242895 -0.00613799 -0.0061315065 0.005506173 0.007149422 -0.0073664966 0.0009745079 -0.0059743696 0.0011193383 -0.0037562288 -0.0029900286 0.0018265843 0.0079255905 0.0069216033 -0.009640887 -0.005555571 0.008082335 0.0016531441 -0.005406799 0.0012814634 0.009790949 -0.00033052763 -0.01027526 0.0029679537 0.0058200685 0.0066639264 0.004560162 -0.005668008 0.00049775175 0.0005212329 0.004518034 -0.008250027 -0.0085380385 0.0006602653 -0.00901549 0.005246349 -0.0011613457 0.011289161 -0.0059000086 0.00012195604 0.007766734 -0.0032189416 -0.0041973745 0.0020058719 0.0036272928 -0.0018641757 0.0063571446 -0.0074028554 0.004447009 0.0015283878 0.009121336 0.005242993 0.0073980317 0.0079057235
card -0.009957538 0.010222123 -0.0077744424 -0.0023789878 -0.0048834365 -0.0060573504 -0.0077035925 -0.0063297087 -0.0051211882 -0.0016525016 -0.005077272 0.0048038103 -0.009487843 -0.004614739 0.009681635 0.0069303066 0.007996068 0.0034405629 0.00044699488 -0.0073231463 0.0063182614 0.0031198426 0.008155052 0.006043856 0.0077331434 0.008932959 -0.01034743 -0.007164525 0.0004435685 0.0064812456 0.008552301 0.0056342054 0.008149067 -0.005233113 0.0059538567 -0.0031287717 -0.008741993 0.008762271 0.00076492847 -0.00357872 -0.0022990173 -0.0049481657 0.0044075204 0.0044810525 -0.0019664972 -0.007664154 -0.0040220865 -0.0006721497 0.00640807 -0.0024928914 0.0003503762 0.00041787175 -0.0070601576 0.0020392828 -0.0019256632 0.0032356558 0.005237125 -0.0015664251 -0.0034694537 0.007909127 0.0050412314 0.0068127876 0.004701147 0.00842765 0.006502329 -0.00052979944 0.009040362 0.005307204 0.0046671466 -0.00013915256 -0.0023139091 -0.0042118365 -0.008195498 0.0031379818 0.009567817 0.009324226 -0.00197055 0.005950241 0.0033482704 -0.0038924103 0.0016845898 -0.0059061884 0.0076244827 0.006524377 0.0027488442 0.004554486 0.008591029 0.008002296 -9.857801e-05 -0.006773985 0.009246027 0.007857397 0.0017163575 -0.0011218855 -0.0048497105 -0.0035375059 0.008939743 -0.0038617498 -0.005794829 0.009994836
turn 0.0073569496 0.009941347 0.00081656995 -0.007974352 0.008513415 -0.0052452185 0.006398767 0.006226791 0.008780888 -0.009766689 0.009298954 -0.0112659 -0.00674701 -0.008214705 -0.005400934 0.0072965934 0.009676945 -0.004444964 0.0036940314 -0.0055855922 0.008273852 0.0064109373 0.0007156238 -0.004179035 -0.0075377296 0.0050478056 0.00083079236 -0.0030559073 0.006686451 -0.0039459593 -0.0075819846 -0.00204668 0.0008218824 -0.006981124 -0.0062027653 -0.0071848356 0.009480167 0.0071087005 -0.0010860495 0.0062799803 0.008099761 -0.001729426 0.006178089 0.004169258 0.006219793 0.006878544 -0.0052600694 -0.0028076193 0.0012315579 0.004732774 0.0038483292 0.004488628 0.0045061084 -0.008524722 -0.003582814 -0.0068299402 0.010019748 0.0046525174 -0.00085479696 0.004277066 -0.00761858 -0.006526685 0.003289392 0.006414222 0.0024685669 0.006955406 -0.0016056765 -0.0021736785 -0.00064966484 -0.0016059404 -0.006035732 -0.007499829 0.0072638574 -0.0009992694 -0.00080083864 -0.007256858 0.00940659 0.000726593 0.0012841778 0.0031168158 -0.00802671 0.0010132606 0.002135789 -0.0070723253 0.0044520083 0.0029197438 0.0076091425 0.0061076595 -0.0020435813 -0.006830404 0.008229211 0.002705208 0.005345187 0.0068348795 0.0034719624 -0.0050774934 0.0004430745 0.007397782 -0.0055329567 0.009730638
games -0.007910909 0.005119375 0.0021486236 0.0077433563 -0.005037247 -0.0063224756 -0.0055117286 0.0054365266 -0.005471876 0.007918644 -0.0043638526 -0.011083736 -0.0046561304 0.0074669253 -0.0060997843 -0.00536548 -0.006802354 0.004932405 0.0032101811 0.00081181107 -0.0027551986 0.0067542717 -0.0055573485 -0.0026077845 -0.0063534915 -0.0006007842 -0.0028953678 0.0077441935 -0.0013274512 -0.008483742 -0.0036889925 -0.0067624827 0.0033803182 0.009336382 -0.0066884784 0.009904832 0.008882451 -0.0075512305 -0.009646168 0.008225777 0.008585962 -0.0057456153 -0.007480613 0.007989381 0.004811397 0.00760752 -0.008199628 -0.009877217 0.0020096784 -0.00935158 -0.004276375 -0.00422352 0.009696963 0.008778191 -0.0035218769 0.0065797893 0.008817163 -0.0027837472 0.008656423 0.0073596947 0.0020827367 -0.0037712283 -0.0048705726 -0.0034425668 0.0063780225 -0.0053131045 -0.00257558 0.010108947 0.0023084425 0.007868294 -0.008456655 -0.00036438394 0.006118105 -0.004649793 0.00857032 0.009858161 -0.00048412362 -0.0022950508 -0.0011293824 -0.005225898 -0.009018901 -0.0022773326 -0.0034603442 0.0061712135 -0.0074797883 0.006070239 -0.006956617 -0.006801832 0.009584378 0.009418098 -0.0022714878 0.004427822 -0.0057950052 -0.008378355 -0.0039247856 0.00818145 0.006775403 0.008414607 0.0077878563 0.006907653
be 0.0005946069 -0.009021961 0.0045121056 -6.9773145e-05 0.0062625804 -4.3353317e-05 -0.0025132834 0.010116467 0.000634569 -0.0006451134 -0.004607648 -0.010852537 -0.007692769 0.009952146 -0.008778706 0.008915175 -0.008567656 -0.0015620933 -0.0019660515 -0.011235783 0.008962482 0.0074397326 0.0037947001 0.0041280873 -9.27669e-05 0.009775929 0.0062395893 -0.010514872 -0.005951475 -0.0010728441 0.0049689654 -0.0039950097 0.0023333635 -0.008268406 0.00179042 0.00642302 0.0052991034 -0.003599388 -0.00926618 -0.01056802 -0.0005042758 -0.008451972 -0.0075186472 0.0064051533 0.0084672095 0.0017029179 -0.008748388 -0.006276459 0.008470713 0.00450611 -0.0045764646 -0.008225387 0.00081051915 0.0035295885 0.0013534604 0.0038761243 -0.0050801923 -0.010286707 -0.008262673 0.00045502145 0.0047186324 0.004500408 0.0021495572 0.004829627 -0.0019310096 0.0050789025 -0.0087448275 0.008872372 0.0049670213 0.007167982 0.006723489 0.008868106 0.0015615823 -0.0017166096 0.001760998 -0.008591633 0.008472126 -0.0066981837 0.007818106 -0.0036042512 -2.6470501e-05 -0.009945774 -0.010644567 -0.0059875743 -0.008537673 0.001034186 -0.0071743876 -0.003851123 -0.004162037 -0.0038669107 0.008484293 0.005779802 0.008761658 0.0075512417 -0.003961308 0.008787916 -0.008849067 -0.003666992 -0.007065649 0.004337121
: 0.0014386798 0.0076524597 0.002872097 -0.0066714836 0.007785198 -0.0071818274 0.009390074 0.0044527873 -0.004723696 -0.005045673 -0.0044731 -0.007643874 0.009484895 -0.0018774021 0.007944552 -0.009800443 0.0025666894 -0.002141711 0.0075206365 -0.010548699 0.007675428 -0.00456882 -0.005587989 -0.006078351 -0.0035373925 -0.0031356518 -0.0038120488 -0.008031003 -0.00024905597 -0.00045119555 -0.0003670378 0.0038992187 -0.007129327 -0.0035577766 0.004475041 0.009625283 -0.009611552 0.0068800007 0.0047305604 -0.0048669954 0.00871145 -0.010039395 0.006831118 0.0054722955 0.0020725052 -0.0054378905 -0.004643696 -0.0037672191 0.0018316898 0.0020068833 0.007833069 0.009426002 0.008805643 -0.003977678 0.00929573 -0.00031745754 0.0052980543 0.0022368485 -0.0015150259 0.0037840137 -0.00531634 -0.005740121 -0.007473627 0.0016714841 0.0054164436 0.0014309974 0.001599169 0.0038136935 0.007244633 -0.00638583 0.0019305674 -0.0071776006 0.0042420104 0.009446096 0.008315028 0.0066914284 0.008055371 0.0065147374 0.0064809844 0.009095952 -0.0053763664 0.00868677 0.0043792506 -0.0008401409 0.00796582 0.0054641603 0.00965859 0.003657624 0.010640475 0.0015188244 0.0101100495 0.0042627077 0.0065593864 -0.0032659934 0.00787757 0.008170393 -0.0018404394 -0.0025460236 0.0040034642 -0.0068697
on 0.009412708 -0.009452028 -0.006531172 0.0030988848 0.0063567627 -0.006304302 0.0030479978 0.010279253 -0.0072912103 -0.006554831 -0.0049757883 -0.0047313417 0.0018437913 0.010173114 0.0066190907 0.00024305366 0.0026601232 0.007825419 0.009078653 0.004501045 0.0061799944 -0.007310713 -0.003336807 -0.005944015 0.0060665733 -0.002132319 -0.009220989 0.007283308 0.0077005746 -0.0032540911 0.010016697 -0.00060902926 -0.0031427934 -0.0004632991 -0.0002454814 -0.0027417238 0.0030098862 0.0053745345 0.006490245 -0.009557549 -0.0019484084 -0.006067078 0.007134798 0.006626802 -0.0037495485 0.0020376835 -0.006385077 -6.4399304e-05 0.009721063 -0.0023560077 -0.004820683 -0.0077039357 -0.002889303 -0.0008615443 0.0031770174 0.01017334 -0.0030302962 0.0017928452 0.009063366 0.0017308046 0.0010129978 0.009840983 0.0094659105 0.007329506 -0.0071515506 0.0105262315 0.0060364036 0.009645883 -0.002571725 0.0044160644 0.0065781516 -0.0037835652 0.0069317734 0.0025802928 0.009882799 -0.0026113542 -0.0030860386 0.006027803 -0.009569972 -0.006924329 -0.0068162656 -0.0011685537 -0.0028833342 0.007765219 0.008817501 -0.0005356949 0.0014324116 0.0026074017 -0.0013652457 -0.0077642105 0.008117052 -0.0037989542 0.0045337314 0.009312812 0.0038805474 0.003995551 0.004279442 -0.0032794534 0.004179041 0.000382084
or 0.0051237065 0.006258053 0.001762096 0.0061016553 -0.00906309 0.004948805 0.009740837 -0.0020779485 0.00081236596 -0.0058791623 0.00090069044 0.0006725768 0.008128629 0.0016653265 0.0027819138 0.0011719741 0.008923476 -0.0068119452 -0.0061910483 -0.005696105 -0.0020199711 0.005641666 -0.0075508994 -0.003496887 -0.008467831 0.005466883 -0.0035041815 -0.009904074 0.0027403568 0.009211506 -0.001421852 -0.0055749123 0.0038972558 -0.00085481204 -0.010829293 0.009958416 -0.0069530606 -0.0053455965 -0.0035038767 -0.006732727 0.0019206444 0.00858786 0.003863741 0.008533282 0.0006879529 0.00030258705 -0.0034169073 -0.009312135 0.0038124975 0.0026060531 -0.008857071 -0.0056081074 -0.009735038 -0.0056050518 0.003585657 0.009335345 0.004669283 0.0019136111 0.007043038 -0.0009108099 -0.0012764423 -0.008707193 6.278081e-05 -0.0029171 -0.0012186534 0.008142858 -0.0066458015 -0.0029650717 -0.007853537 -0.0017443241 -0.003812745 0.0025857503 0.004006285 -0.005006527 -0.0033785987 0.0016230522 0.0054217526 0.0052550705 -0.003570987 -0.003791599 -0.0062075937 -0.0013102462 0.0009381731 0.0034185958 0.0066284942 -0.0021260874 -2.1528162e-05 -0.0043697506 -0.000133085 -0.007211347 0.0003948844 0.0022697463 -0.008643403 0.009261986 -0.0077669076 -0.0083179455 -0.008163134 0.0063187424 0.0060480633 0.009390068
one 0.0020131 0.0015536017 -0.002405747 0.0097606415 0.0026385337 0.0025355653 -0.0005438947 0.0028450396 0.0058003454 -0.0013472234 0.0032345136 -0.0026743987 0.0053282147 0.004704866 0.002817557 -0.0055357763 -0.004292347 0.0031602667 -0.00590947 -0.0023481154 -0.00039776388 0.004114383 -0.00784706 0.00842849 -0.0018368214 -0.005035372 0.0032662824 -0.0025712866 -0.009132337 -0.004474547 0.001186318 -0.00881245 0.0013645346 0.0022947511 -0.003990986 0.00414061 0.0029383162 0.009591287 0.0005851416 0.00083011313 0.003000034 -0.0031704358 -0.009445603 0.008331926 -0.00089510507 -0.010277666 -0.0072452086 -0.004517576 0.0042409427 0.0055506555 0.00666376 -0.007441769 0.00064233143 -0.002645935 -0.005838745 0.0076937717 0.004518517 -0.0035606644 -0.009393732 -0.0048971632 -0.0007076167 0.007843108 0.0063605513 -0.008909061 -0.011172605 0.007995305 -0.0019569718 -0.0027200154 0.0046337834 -0.0041728537 0.0046375017 0.00019680006 -0.006238317 -0.00035667513 0.007415967 0.010050658 0.002094148 0.0048250076 -0.005657665 -0.00017386585 -0.005813161 0.00047848345 -0.002818495 -0.0020111364 -0.007754941 0.010410922 0.0030267618 -0.001152765 -0.0030607788 0.008209099 -0.005259845 0.0040019876 0.0007562829 0.008770823 0.0082720015 -0.0015089333 0.0030106301 -0.0025922172 -0.008673664 -0.002397006
can 0.0007694559 0.007374205 0.00995958 0.009422713 -0.007991974 0.0049220216 -0.0050307233 0.0010376363 -0.00032223904 0.0059523196 0.0044447114 0.0026473764 0.009548634 0.0013289922 -0.0057477956 -0.0064963344 0.006863702 -0.0064473553 -0.0029316426 0.0021485933 -0.001993554 -0.005402857 -0.0016849089 0.00067144696 0.0019360835 0.006440247 -0.0059961765 0.0023766127 0.0060588378 0.0023658455 0.0070389174 -0.004641568 0.0069570644 -0.007915263 0.002739048 -0.007830661 -0.0022280943 -0.009447188 -0.0023590508 -0.006584185 -0.003798071 0.00019534447 0.0022874605 -0.0011430252 -0.0071683433 -0.0063861264 0.0001295383 -0.004457048 -0.009196813 -0.00030157587 0.0071993507 0.005267507 -0.009978998 0.0031747848 -0.0065325573 -0.008670559 0.0007450897 -0.00070870476 -0.0081047 -0.006139493 -0.0023486982 0.007147839 -0.0073494376 0.007397508 -0.0019721237 0.0018605666 0.009899074 0.005695747 -0.0047481586 0.0052467426 0.0031118917 0.006741126 0.0006801476 -0.0044632587 0.0024240583 -0.004890231 0.0014328073 0.00468519 0.004598195 0.009765611 -0.008090168 -0.0060788076 0.005616519 0.0029014144 -0.007304389 0.0015194793 0.0027922022 -0.0015418973 -0.00404148 0.0053418023 0.010859571 -0.006573756 -9.626046e-05 -0.0020203895 -0.0048405295 -0.00013119532 -0.0048766066 0.008148663 -0.005257656 0.0038584466
? -0.0008265266 0.0050220056 0.0021030114 0.010420836 0.0005407921 -0.0071911183 -0.00058481947 0.0042145583 -0.004342087 -0.008488612 -0.0057319445 -0.008937 0.0064356057 0.0051777856 0.008490738 0.006415691 -0.005550477 0.0014319337 0.008443944 -0.000641729 0.0032535684 0.006630393 -0.008365609 0.008525658 0.0065126545 0.0088500595 -0.009139781 0.005344943 0.005189348 -0.0012015217 -0.0045712166 0.005631373 -0.0061042993 -0.0057211 0.0027437024 0.009752052 0.009039256 -0.004836697 -0.010101678 0.0082793785 0.006618034 -0.005041502 -0.009271567 -0.004504554 -0.002815821 -0.003774163 0.00014784605 -0.0007883473 -0.002880493 -0.0054457677 0.010092699 -0.0054555554 -0.0074430183 0.0077606696 0.001965799 0.009331697 -0.0038537048 -0.007432631 -0.00013771532 -0.0009550801 -0.00941218 -0.001615735 0.003218082 0.0062622353 0.005191815 0.0041578687 -0.00397825 -0.00084291416 -0.005179499 0.0076699955 -0.0068404763 0.0025960777 -0.0006688513 -0.005894292 -0.0059462176 0.006398273 -0.0083558345 -0.00088079454 0.002095565 0.008494848 -0.007890983 0.0024961731 0.008736912 -0.0051400065 -0.0043589 0.005783357 0.0051851375 0.002837876 0.009220803 0.0014626002 0.0032417662 -0.0006939725 -0.008201053 0.0038718632 0.0034814582 -0.007332239 -0.00023206299 -0.00094339903 0.00077407836 0.009059546
your -0.002963088 -0.0052090995 0.007477391 -0.0068696016 -0.008995214 -0.0032243112 -0.007858886 0.0022954135 0.0010619657 -0.0030477052 -0.006557701 -0.002258967 -0.0009841566 0.004588262 0.008370242 0.005669521 0.008930687 -0.010091211 0.0094987545 -0.004456151 0.008968242 0.0030008708 0.004101818 -0.010160788 -0.009813618 0.0091965245 -0.0037494495 0.0020590774 0.005187478 -0.00012283912 0.011160355 -0.0007641628 -0.008921756 -0.0075468575 -0.0018509625 -0.0072585656 0.007711584 0.0032302032 -0.009590263 0.0073108273 0.009226457 0.004829571 0.0063249418 -0.009257615 0.001614054 -0.009682603 -0.0042614047 -0.00034108968 -3.235498e-05 0.0019927896 0.003761834 0.001585938 0.0052360543 0.0076116635 -0.0063041397 0.008549032 0.0064916257 0.009385641 0.003576385 -0.0031105215 -0.0037549795 -0.0006910183 -0.0014243518 0.009591808 -0.00041885237 0.004827884 0.0039332327 -0.0078917565 0.005687407 0.0099622905 -0.0021243244 0.002709827 -0.0059312787 -0.0062414706 0.009447004 -0.0024107434 0.006816127 0.001351079 -0.0025886116 0.0035382877 -0.0046444833 -0.0025089832 0.00038294497 0.006590208 -0.002232387 0.0013472101 -0.007945211 0.010547734 -0.007655551 0.0075795683 0.0051444466 -0.006204155 -0.0052763317 -0.0074380133 -0.003788464 0.008396272 0.0099723395 0.0013186312 0.0011751784 0.009719315
's -0.0054978807 -0.0006104857 0.0032520327 -0.0060259732 -0.009781586 -0.010645439 0.009615139 0.0071698334 -0.005639813 -0.008959259 0.0012251872 0.0010370081 -0.001172415 0.0021399497 -0.0041002254 0.004683872 0.0019347584 0.007835034 -0.010115802 -0.0071351775 -0.008810264 0.00028500936 -0.0071936813 0.0045521255 -0.006672386 -0.0056815716 0.0042005964 -0.0088086575 0.00028722017 -0.0071490714 0.011241005 0.008849448 0.0024101036 0.005680221 0.0038659882 -0.004602907 0.010031762 -0.010171205 0.00732699 0.0016262118 -0.0027538354 -0.0044938624 0.008529572 -0.0053170985 0.009179287 -0.0064622927 0.007774917 -0.0009524291 0.008280262 -0.0027654297 0.0065713553 0.008091878 0.002561564 0.0013141438 0.0043547694 0.008582484 0.009041822 0.00808862 0.006142028 0.00828044 0.00862373 -2.2932592e-05 -0.0007377294 0.001220852 -0.0014654712 0.0014869585 -0.008249016 -0.008580421 -0.0032751947 0.010633872 -0.0040817834 -0.006648159 0.0054486515 0.0011076207 0.0027801075 0.0042347373 0.0035633515 0.0053985766 0.0005470363 0.0014386403 0.008550136 0.0021414896 -0.005655451 0.008092184 0.0046067066 0.003496859 -0.0031737832 0.0042770985 0.0073526828 0.007503644 0.0020979568 -0.007768773 0.00013042001 0.0007130345 0.005333695 -0.008217489 0.010169289 -0.007871401 0.006404715 -0.009352717
- 0.009130751 0.008017381 0.0013913497 -0.003101815 -0.0005085984 -0.0010787408 -0.0059023206 0.007719077 0.0015940269 0.0031239865 -0.007346352 0.006614205 0.0006381258 0.00085584616 -0.008909357 0.0038453399 0.0071147163 0.0063257287 -0.0064225392 -0.00967506 -0.005208097 2.9578501e-05 -0.007776703 -0.008770549 -0.0021972267 0.0013360316 -0.01030986 -0.0043705115 -0.00047422413 0.006853329 0.0030732234 -0.00041033994 -0.006866636 -0.0070478236 -0.0013409937 0.008833011 0.005863803 -0.0019236172 0.00037096455 -0.010756254 -0.0010961932 -0.0055667125 0.005073209 -0.0020780535 -0.0037930175 -0.009799052 -0.0018438668 -0.007546719 -0.0014110185 -0.0036385069 -0.0018823402 -0.0038502482 -0.008211505 -0.0012087035 0.0012017435 -0.0035022292 -0.0072422624 -0.004124377 -0.01001463 -0.0006144231 0.005928963 -0.0028308616 0.0033641674 0.0046608136 0.007073644 0.00633841 0.009807655 -0.008884318 -0.009018965 -0.0053207777 -0.007888656 -0.0076231495 -0.0072441455 -0.0030902305 0.0025486932 -0.002442377 -0.008876371 0.004835495 0.00029190767 0.0050241603 0.0066265697 0.007157233 -0.0016518558 0.0053091403 -0.0058350903 0.0025870337 0.004510963 0.010833723 -0.0021771286 0.0032623967 -0.004593572 -0.0015320057 0.008162182 -0.003537316 0.00025428677 -0.008093128 -0.009225988 0.008042311 -0.0052441335 0.0051122634
are -0.0075661927 -0.0017645765 -0.008053223 0.007902889 0.0059846984 0.0037655106 0.008816346 0.0011422876 -0.01003619 0.008630899 -0.0049476125 0.006139053 0.0055963346 -0.00013882387 -0.007348521 -0.0015906977 0.006701885 -0.007932483 0.0014297268 -0.00975242 0.008977413 -0.00216738 0.009952768 -0.0061807795 -0.009972972 -0.008403063 -0.0049262126 0.004099582 -0.0014642071 0.009297461 0.0046559237 0.0039798836 0.0035674495 0.007995543 -0.0030919919 0.008755549 -0.009284035 0.0025698475 -0.0013888302 -0.0005477325 0.007084685 -0.003707442 -0.0029218781 7.70407e-05 0.00042000506 -0.0041792756 0.005701574 -0.007000747 0.008248381 0.0003723931 0.0031514224 0.002523087 -0.00030032024 0.0017596533 -0.003732753 0.0053475983 0.0007753359 -0.0037230349 -0.0096003255 -0.00972151 0.00031936364 -0.0057956725 -0.0008806904 -0.004564904 -0.009977704 0.0018978621 0.0062217 -0.0012728003 -0.0081297895 0.0046449243 -0.0006675878 -0.0051400177 -0.0005347701 -0.00065374485 -0.0021359685 -0.009260203 0.007724071 0.0035295023 -0.0031323263 0.007993198 6.1653096e-05 0.0065242727 -0.0024964435 0.008965508 -0.00061277003 -0.005548715 -0.0048168767 0.010567905 0.0016451129 0.0016640652 0.009584977 -0.0055249017 -0.0017761418 -0.0077741947 -0.005351435 -0.00737101 0.004318413 0.0018565459 0.006332924 0.0027068588
all 0.0016001483 0.0063247727 -0.002076543 0.0033826802 0.008434685 -0.0008870193 0.0067727114 -0.0051048785 0.0058199796 0.004220209 0.0050059054 -0.011507731 -0.00035719379 0.004030724 -0.0056548347 -0.0068726954 0.006716727 -0.0078098667 -0.005225852 0.0065211183 -0.00679342 0.009129141 0.0011149854 0.0038841974 -0.003293188 -0.0052321777 -0.009633858 -0.0010435123 -0.006123779 -0.0029848898 0.009386357 -0.0074560964 -0.0058088196 -0.005532228 -0.007300128 -0.0076813786 -0.00084174034 0.009053981 0.007419138 -0.0062697865 -0.007945056 -0.0031229535 -0.0097778365 -0.0048968545 -0.005113799 0.0026122872 -0.008092058 0.00094082404 0.0026316708 0.0057361177 -0.0014919214 -0.010337215 0.0052872184 -0.0058632614 0.004405864 0.0024074917 0.009370371 0.0012228616 -0.002582908 0.0066962168 -0.007089967 -0.00832264 0.0039200312 -0.0028388507 -0.005439993 -0.001243774 -0.009532876 0.0010365392 -0.0019520004 -0.0015632608 0.002168652 0.0050665527 0.0068280417 -0.007944349 -0.0040820134 -0.00835333 -0.008848641 -0.0039563277 -0.00181953 -0.0077827615 -0.0059575196 -0.002719509 0.005547314 0.003014795 0.0077289552 -0.007809328 -0.0045916564 7.698874e-05 0.009629869 0.0016043142 0.0025065932 0.0019266687 0.0029835205 -0.008987809 0.0045586387 0.0066080703 0.005649025 0.0036522099 -0.0076222266 -0.003917564
1 0.007931303 0.00011904964 -0.009666937 0.0052396553 -0.0061436547 0.0051773703 0.0061023505 -0.0031481772 0.0015067783 0.004838224 -0.0036432378 -0.0036452455 0.009350739 0.009996101 -0.009246081 0.007515181 0.010423545 -0.0040347967 0.0023761312 -0.0049067615 0.0089831045 0.00028241746 0.006291314 0.008681239 0.0037370673 -0.0069259563 -0.0026879879 0.00053390674 0.0007372915 0.003016493 0.011103092 0.0045754355 0.0106164655 -0.008987725 -0.006675326 0.0034772982 0.0039567673 -0.0014411486 -0.0076039685 -0.0043931426 -0.008320747 0.008312666 0.0031884264 -0.0076538105 0.0043956023 0.00391735 -0.0063689495 -0.006383866 0.0013989254 0.009405888 -0.0091043515 -0.0007630011 -0.0069918116 -0.00093924784 0.0025249086 -0.004528086 -0.0023172407 0.00025454815 -0.0074854754 0.0076186964 0.004389633 -0.008608722 -0.0019622685 0.002913348 -0.009949366 -0.006108506 -0.008061982 -0.004312194 0.007904747 0.008914628 0.002263315 -0.008205528 0.0065766093 0.0046123406 0.001223726 -0.008376742 -0.0018584996 8.898769e-05 -0.008314098 0.0030366501 -0.00016311946 -0.0077115344 -0.009221174 0.007901035 -0.008986714 -0.004931215 0.005603696 0.0005595105 -0.0019672695 -0.0048788995 -2.0432388e-05 0.0062815966 -0.0058547296 -0.004436688 -0.00344852 -0.0035705417 -0.007452138 -0.01079094 0.008218665 0.0082227485
easy -0.0048775976 -0.0086918315 -0.0018820548 -0.0032645795 0.008929692 0.0014727564 -0.0053852466 -0.0015984667 -0.010719748 0.0014308372 -0.003996182 -0.004703415 0.005299208 0.008618733 0.004506228 -0.006872525 0.0073133768 -0.010780855 -0.006989175 -0.009898092 -0.002003938 0.001108608 -0.003288965 0.0012907747 0.008982206 0.006964154 -0.001700531 0.008653028 0.00032880798 -0.001962666 -0.0050465325 0.006757828 -0.00853313 -0.0021374011 0.006962835 -0.0012103753 0.0019856235 -0.0076831803 0.0043752715 0.0063725514 -0.009165459 -0.0041901637 0.0073636603 0.0031658686 0.0009758206 -2.542744e-05 -0.010495941 0.009520863 -0.0015886421 -0.0043496103 0.003359662 0.0003932627 -0.0059687253 0.0059160683 -0.0030866165 -0.0054859915 0.007851875 0.006079626 0.007845753 0.0013117994 0.00041136227 -0.007965124 0.0048531285 0.009236102 -0.0022355309 -0.0009816317 -0.0035316085 0.00052084157 -0.008484474 0.0073522786 0.0010716591 0.009744995 -0.005740763 -0.0050671673 -0.0052035586 -0.006627861 0.002888691 0.004575537 0.00085876376 0.0042430027 -0.010004139 -0.0016806476 -0.008718016 0.004520147 -0.0034279618 0.009457606 -0.003509239 0.0077791954 0.0050426344 0.0018231847 0.0011358722 0.009021572 0.0024734472 0.008799559 0.0046544243 0.0067162113 0.0055024438 -0.008485371 -0.0051256693 0.0015002284
play -0.00018990708 0.0025952153 0.0010965281 0.007914225 -0.0045354897 -0.00083848933 0.0072791046 0.0038924876 0.0036535216 0.003797549 -0.0013279978 -0.009856578 0.0030751287 -0.00815912 -0.0024961273 -0.009451032 -8.5052416e-05 -0.008686957 0.0074562994 -0.006428485 0.01008706 -0.008631287 -0.0038403291 0.0014085063 -0.0032346568 0.0016115721 -0.004328051 -0.0014070848 -0.0067641228 -0.009765356 0.0074636396 0.0005393414 0.007160675 -0.007632515 0.0030792437 -0.008808959 0.007832158 0.005477655 -0.006807338 0.0073968754 -0.0054131006 -0.009418625 0.0009869437 0.003475693 -0.0072360113 -0.009269079 0.008659989 0.0012903239 0.0010568288 0.0028233097 -0.003149883 0.0013250534 0.0020309715 0.009910024 -0.006058027 0.0028319533 0.006613541 -0.007043464 -0.009680576 0.008895867 0.006892607 -0.0040015797 0.005990217 0.0004907066 -0.0062395395 -0.0006597652 -0.0045784023 0.006841081 0.0011481562 -0.0069555533 -0.00050881784 -0.002336018 0.007111265 -0.0012328051 0.008460554 0.0025365734 -0.0038185033 0.007873179 0.0024680612 -0.0034645863 -0.0060000005 -0.003561252 -0.0059595574 0.004745454 -0.0099238455 -0.005292478 0.0033355088 0.0010129686 0.006870067 -0.00322198 0.0009537826 0.0031143976 0.0053724675 0.0019503806 0.010924369 0.004814781 -0.0068913265 -0.0021939995 -0.0077025983 -0.005284762
as -0.002578644 -0.009137242 0.009262706 0.0024106677 -0.0013392608 -0.006631981 -0.008161369 -0.008399525 0.008242799 -0.0031083757 0.0045205033 -0.006064155 0.010071519 0.004352058 0.0013038035 -0.0042359326 0.0016450665 -0.0035726458 0.00737288 0.002924734 0.0011842829 0.0039417045 0.00431006 -0.007213318 0.008758428 0.001989067 -0.0065268795 0.007978169 -0.002298025 0.008462213 -0.00035966578 0.007235904 0.0032808566 -0.0045637637 -0.004511373 0.010416304 0.001717246 -0.00649991 -0.00033687428 -0.0029799151 0.0018047998 -0.008563666 0.0069555044 0.0015032261 0.008860592 0.004024445 -0.0048446697 0.0032910013 -0.000511568 -0.009462949 0.008609444 0.009252943 0.009652094 -0.003733569 -0.008787924 0.005305491 -0.0072594816 0.008291411 0.0019509444 0.0058062556 0.006148604 0.0004764099 -0.0018482555 0.00049223826 0.0084887035 -0.0065065254 -0.0011886096 -0.0015280369 0.003971687 0.007968141 -0.0044500562 0.003910245 -0.0039506666 0.0032708151 0.009091143 0.004152715 -0.0045641353 -0.003271602 0.007349148 0.01007117 0.0055331984 -0.003929829 -0.0027129608 -0.0049054394 -0.0048669777 0.00390816 -0.0065296083 -0.005792673 0.0088718245 0.009882125 0.009027222 0.002239334 -0.008879185 -0.007205583 0.0027405429 -0.008366228 -0.007178101 0.0012394746 -0.0024883798 -0.009223813
it 0.005946676 -0.0082960725 -0.007357584 -0.0013984012 0.0015885683 -0.0024048847 -0.00475785 0.008298128 0.008004853 -0.007969944 0.009783655 0.0056716064 -0.0074277893 -0.00097747 0.0044601886 0.0068596876 -0.0033344978 -0.007987757 0.0046473523 -0.010789802 -0.0055875396 -0.00069935713 0.006009761 -0.00613818 0.004604067 -0.00027723736 0.0018631271 0.0057944483 0.00027097735 0.007914672 0.0010089673 -0.008143868 0.009736957 -0.004999955 0.0039707827 -0.0026025511 -0.0070665157 -0.007074988 0.004055311 -0.001776829 0.0016563457 -0.009820233 -0.005751907 -0.005878565 0.009364717 -0.009031693 0.0044521918 -0.0012390235 0.00043658647 0.00910641 -0.0029811363 -0.007495519 0.0007068083 0.007744957 0.00861951 -0.0030054024 0.0031736414 0.004489543 -0.006175261 0.007066196 -0.006424401 0.0022723055 0.0047337455 0.004035014 -0.0060281367 0.0034387198 0.007713034 0.009416985 -0.010524732 0.007181665 0.0046414104 -0.0011435497 0.009656921 -0.0042213583 -0.0008651546 -0.0064096265 -0.0037880081 9.8385506e-05 -0.0038887474 -0.0048913853 0.0061617033 -0.00592788 -0.007172998 0.0091574555 0.00914072 0.0045454525 -6.2159634e-05 0.0016500375 9.828116e-07 0.007223331 -0.005158261 0.0012578545 0.0041992664 -0.0018049455 0.0022004168 0.0049065007 0.010132601 0.0013129858 0.010028215 -0.0057907146
for 0.004402977 -0.0029280358 -0.0042812573 0.0015180495 -0.004251231 -0.0069683315 0.0036638419 0.01012996 -0.007234627 -0.009687634 -0.003528652 0.005728046 -0.009693906 0.010562027 -0.00020780093 0.00215092 -0.0014898229 -0.0067054667 0.003162221 0.004367976 -0.006751192 -0.0006564357 0.0020568485 0.0037850514 0.0068221493 -0.0032574004 0.0064716744 -0.006285272 -0.0033260733 0.009191916 0.006774735 -0.008282749 -0.0009859365 -0.009239057 -0.0022864777 0.0069867317 -0.0070058554 0.0051990305 0.005313993 -0.004839408 -0.009454437 -0.003535663 -0.0032759197 0.004122609 0.009832715 0.0016258312 -0.002664795 0.002536528 -0.0065110438 -0.0008595362 -0.0010549469 0.009038007 -0.0058321077 -0.0070203734 0.001997017 0.0032612775 -0.006695142 -0.0063449154 -0.0020474126 -0.0031487222 -0.008978395 -0.004051027 -0.002795706 0.006193087 -0.00044404576 0.0023100155 0.0006070009 -0.002541839 0.0020570501 0.0022611034 0.005497227 -0.00043954205 -0.008326191 0.0008406134 0.010911529 -0.004681751 -0.0053389133 -0.0026182504 0.007995435 -0.00032557413 0.008840083 -0.008951864 0.008263736 -0.008200558 0.008528455 0.002506448 0.0026869066 -0.0048515173 0.009401946 0.006487808 -0.004360249 -0.008668664 0.0069057997 -0.0051784883 -0.008074579 0.0037669523 -0.0046756277 -0.008166152 0.010312237 -0.0015116993
have -0.0020818757 -0.0033220013 -0.0044269976 -0.004321354 -0.0056174165 -0.006833362 -0.007499849 0.011473809 0.0056002936 -0.0041763005 0.002344519 -0.009432172 0.0076473933 0.009195007 0.0010427184 -0.0069886646 -0.0025810197 0.0037527643 -0.003008009 0.0012757123 0.009769057 0.0049476535 -0.0045933356 0.0049307602 -0.003138186 -0.0062390156 0.006192313 -0.009873309 -0.0022929143 -0.0012854276 -0.0069874907 -0.0008959947 0.0063349316 -0.005518525 -0.007702424 0.007604417 -0.0030663225 -0.008385927 -0.00044573512 -0.0011852862 0.0077678254 -0.00039043033 0.00727534 -0.009688095 0.004998964 0.0058851377 0.0004707505 -0.0031948853 0.0013692741 -0.00032625414 -0.0076130014 -0.007481489 0.0012083286 -0.0019682138 0.009000647 -0.00034714997 0.006664926 0.0016451497 0.0071889707 -0.009062581 0.0024606872 -0.0013749299 0.0023982236 -0.0006416942 -0.008075726 0.009880628 -0.0024547828 0.002682136 -0.0076043457 0.0054312767 0.009613739 -0.00090875046 0.0071784505 -0.00016348626 0.008835888 0.010124547 -0.00039086447 -0.0018776414 -0.010100003 0.010456114 -0.002980493 0.0016066029 -0.0025328104 0.0099006435 0.007639139 0.0020990728 0.0028579028 0.0074121947 0.003319774 0.0069382475 0.001294577 -0.0015350413 0.005325312 -0.0031496887 -0.0012267944 0.010034836 -0.008839389 -0.0043692803 -0.002287746 0.0057841484
pile 0.007584893 -0.006046666 0.005773963 0.000115901166 -0.009113587 -0.0035035277 -0.0011943735 -0.0030771624 -0.0013615628 -0.0056678443 0.0059209885 0.008120236 -0.0015633679 0.003983161 -0.00052991003 -0.0008460158 -0.006796118 0.00081423647 0.0039047182 0.0055737128 0.0067812325 0.0038620085 0.0051127817 -0.0077454885 -0.0016182136 -0.005721441 0.006286461 0.007413427 -0.0050847204 0.0011726586 0.0061112875 0.0019697421 0.0013003536 -0.006876135 0.009377097 -0.006446319 -0.0057693156 -0.006099573 -0.0068387776 -0.0041963155 -0.009188267 0.000498272 -0.004283844 -0.0023514815 0.0064361035 0.0032227882 0.0013672849 -0.0016438386 0.010178578 0.00062160316 0.0053869504 0.008669589 -0.009744311 -0.009139867 0.009564346 0.0032139744 -0.0015111625 0.004538212 -0.004998982 -0.0062010353 -0.00823415 0.0073086033 -0.002228661 -0.00798025 -0.0070663244 0.0067839837 -0.0022074499 -0.0054952526 -0.0023763143 -0.00036332128 -0.0036318433 -0.0019080964 0.004500469 0.0013581457 -0.0028173027 0.0031492498 0.0052545853 -0.009277903 -0.008129024 0.0066545554 -0.00926982 7.477278e-05 -0.009621059 0.009493455 -0.0048248046 -0.0062274234 -0.0013400244 -0.00042716792 0.008357827 0.009466634 0.00042788216 0.0032789288 0.004682725 0.0004400336 -0.004754541 0.00038292268 0.0023874957 0.0076564853 -0.0031055356 -0.009773516
that 0.0050419043 0.010388075 -0.007118546 -0.0003425781 -0.0051200883 0.005365335 0.010009742 0.0009755671 0.0045865825 0.006174545 0.0044556367 -0.009354522 0.003181547 -0.00078786735 -0.0019292776 0.0051655606 -0.00096033973 0.009098714 -0.0007108037 -0.0011880472 -0.002075918 -0.008030543 -0.009477942 0.0046957983 -0.006861327 0.0032214343 0.0022269303 -0.0075082076 -0.0040308414 -0.005654818 -0.007309023 0.00019823854 0.010205985 -0.0068162614 -0.004933677 0.00941459 0.009445677 0.009519927 -0.010426542 0.0041759294 -0.006500139 0.0061785337 0.005897648 -0.0031420428 0.007643719 -0.008288973 0.0041259932 0.0040593348 0.0062339636 0.006134573 -0.0021828893 0.0034205946 -0.0061376654 -0.0064571323 0.0023636709 -0.009091947 7.591318e-05 0.00084943173 0.007304696 -0.0068844096 -0.0022466439 -0.0041962885 -0.0051383395 -0.00069928664 0.0035413573 -0.0043797954 -0.0014096741 0.009448172 -0.0020373622 -0.0023122882 0.007225228 0.0015667543 8.8117515e-05 0.009571987 0.0089957 0.003963106 0.0034573942 -0.0025374028 0.0076636723 0.0055638263 -0.0058202217 -0.0067381645 -0.0012765117 -0.0068455087 0.0029888453 -0.008707375 -0.0015711357 0.004144131 0.0037156867 0.0035224722 -0.008241609 0.0040097167 0.005383338 0.0037391938 0.008748014 0.0025907848 0.006621383 0.00815345 -0.00045781984 -0.0006408227
an 0.0019872456 -0.0070859506 0.0056676967 -0.0047948044 -0.0032605068 -0.0027895288 0.008665424 0.0035213977 -0.0013795794 -0.0032445237 -0.002262536 -0.0026947982 -0.0051319846 -0.0033878163 0.00027797016 0.0044767186 0.002063175 0.006146557 0.00064373756 -0.0045351326 -0.007297376 0.0063735144 0.007217135 -0.006383062 0.0045255893 0.009717685 -0.0068521895 -0.0034300503 -0.009935907 0.0033792425 -0.0024364386 0.0022686154 0.009982938 -0.008620673 -0.009865615 0.002805047 -0.0077460906 -0.009301037 -0.009885372 -0.0010911224 -0.0010072875 -2.7825467e-05 -0.0017421669 0.009392124 0.009538219 -0.006544525 0.008156937 -0.009412104 -0.0012053421 0.0028666498 0.00024097349 -0.0042634853 0.00045437992 0.0010204604 -0.009825971 -0.004482407 -0.0073528322 0.003489499 -0.0016432982 -0.0073546087 0.0057064956 0.00027673307 0.0028012556 0.0053275377 -0.0052721896 0.008327755 -0.007617246 -0.0027554554 -0.0081170015 0.002015755 -0.0077548753 0.00934756 0.0059941364 -0.0072778543 0.0069804387 0.0069989064 -0.007394814 0.004569049 -0.007961993 0.00966819 0.004394908 -0.000728399 -0.009527185 0.00021819766 -0.0008082472 0.0013251688 0.008762545 -0.0020668951 -0.0081653735 -0.008581769 -0.00017654212 0.002102543 9.562835e-06 -0.0018348122 0.0094818 0.00092565204 0.006665365 0.0034541304 -0.0068382877 -0.0019458791
from -0.008311287 -0.0060990336 -0.0032355897 0.0068861027 -0.0008261133 0.007595376 -0.0017835767 -0.00364766 0.0032306826 0.0016950187 -0.00034384686 -0.003959305 -0.0059532877 0.004864247 -0.00747281 -0.0090655405 -0.008842994 0.007399075 0.0039762096 0.0055019767 0.0101505695 -0.006640951 0.0045412933 0.0024370614 0.005930018 -0.0031431576 0.008729967 -0.0062709153 0.006070069 0.007042943 0.00096495834 0.0053119976 0.0072252457 0.0013159037 0.0067196493 0.003508033 -0.0012167478 0.0070882356 0.003980044 -0.004219118 0.0018382148 -0.00096231315 0.0044140304 -0.0053238855 -0.0033998871 -0.0012357393 0.0032611934 -0.0069274395 0.008194926 -0.0026883273 0.006260245 0.0023145778 0.0068139466 -0.0044556833 -0.003710786 0.003459341 -0.0023794412 0.00568039 -0.0068120947 0.0026802234 -0.00068094255 -0.0006062503 0.0027154707 -0.002475706 -0.0053820866 -0.007997752 0.0028251004 0.0060513676 -0.0068543684 0.010461574 0.0036848157 -0.00481641 -0.0008481878 0.0038902545 -0.006201062 0.0022985444 0.0055983937 0.006147908 0.005016625 0.004135063 -0.0032381655 -0.0066876486 0.0074080033 -0.005920308 -0.0021833193 -0.0029234388 0.0065053175 -0.005440598 0.0042161746 0.0024647946 -0.0031530715 -0.0075565577 -0.008035846 0.003817123 -0.008370785 0.0067324657 -0.002546022 -0.009944118 -0.004771365 0.007881275
new -0.0021195957 0.007006044 -0.009242733 -0.00885948 -0.005174644 -0.00036906532 -0.0066634933 -0.007816955 -0.0096216155 -0.0009660064 0.0072861663 -0.010200855 -0.005293549 0.002492782 0.0034706153 -0.008608461 0.008342094 -0.009207586 0.0048229895 0.007625046 0.0058111083 0.0067550964 0.008802626 0.0028506282 -0.0074139656 0.005965832 -0.009115941 -0.0063391747 0.004835411 -0.007829493 -0.004533586 -0.0033038121 0.0040327623 0.0048533506 0.0014686952 0.0064011314 -0.0023809315 0.00424389 -0.007844436 -0.0026880587 -0.0074680177 -0.0007641716 0.0041887653 0.0051374976 -0.0037366254 0.0014200611 0.007264478 -0.0060338173 -0.0035251663 -0.00012431333 -0.004308306 0.008103732 0.0075280084 0.009440908 0.009033364 -0.007932807 3.2006178e-06 -0.007953743 -0.005773591 -0.008643303 0.0034521522 5.5253407e-05 -0.006779616 0.007881195 -0.00040805986 0.0009122063 -0.0031864448 -0.0024960923 -0.0035587195 0.008980617 0.0020132014 -0.0048804716 0.005440436 0.00093000435 -0.0016308486 0.0081606535 -0.0039055676 0.0072601996 -0.004590295 -0.0068991967 -0.0051493878 -0.0045200703 -0.0015664431 -0.00028284534 0.0044695986 0.0060274755 -0.001658431 0.0047577033 -0.0011946494 0.0011675616 -0.00026151704 -0.0017587772 -0.0046783746 -0.0037119782 0.0013973227 0.002747178 -0.009166834 0.0053777834 -0.0013561399 -0.0026927304
about -0.005183023 -0.0037658361 -0.0048715216 -0.0095726745 -0.0009163465 -0.009018848 -0.004463339 -0.0057900785 0.009349995 -0.0018125 -0.007668775 0.004042025 -0.007995556 -0.0011226631 0.0029032696 -0.007328224 -0.008347532 -0.0075420747 0.007504748 0.007521413 0.00420938 0.002785061 0.004727167 -0.0044884407 0.009611978 0.007094282 0.003559955 0.008492224 -0.00929711 0.0010415241 0.010184174 -0.0007302111 -0.0061406186 -0.0024694412 -0.0034191946 -0.0015170156 -0.0015824982 0.006948025 -0.0009452008 0.0033145696 -0.0035448512 0.0074239364 -0.0068988404 -0.009122206 -0.0032196257 -0.0077525396 -0.005296205 6.90764e-05 0.0026547208 0.0021383038 0.005475855 -0.0018259095 0.0021453432 0.00043620222 0.0074475133 0.008583398 -0.0016004201 0.0009174393 -0.0068116817 -0.0045404383 -0.006988496 5.1952757e-05 -0.004705431 -0.0043045506 0.00024391 0.0033200977 -0.008804463 0.002598961 0.00431441 0.0054803737 -0.003191928 0.009791288 0.0099609345 3.5653135e-05 0.0017543692 -0.008671751 -0.004794772 -0.0003618404 0.0033370613 0.0006649413 -0.00922894 0.0052949493 -0.008217206 0.009807417 0.005040454 -0.006288897 0.0028939294 0.008501983 -0.0052029085 -0.0062142485 0.010153311 0.0024418524 0.009753327 -0.00955015 -0.00025938998 0.007978933 -0.0011002704 -0.0025193684 -0.006607967 -0.005529688
could -0.006904908 0.009399713 -0.0016559907 -0.008098541 0.007916077 -0.0039424696 -0.0011984269 0.0005035319 0.0023120784 -0.005009564 -0.00016510446 -0.003972837 0.00884471 0.0075275614 0.0013460296 -0.006238178 0.0034245704 0.0003535661 -0.006201993 -0.0069399495 -0.002908675 0.0027984653 -0.007810036 -0.0052241986 0.007911967 -0.003470275 0.007544633 0.00024602655 -0.00639366 -0.0048468863 0.00087613834 0.0046619093 -0.005831508 -0.0054941485 -0.0073984666 0.0076017445 -0.002292053 0.0036630225 -0.0021552434 -0.008125053 -0.0010873965 -0.00018892752 0.0032890253 -0.008574536 -0.0061239214 -0.006948834 0.0026965076 -0.004066097 0.0011667396 0.0042862766 0.004988213 0.0019791087 -0.0029329502 0.0005850345 -0.0057026967 -0.005981444 0.008892877 -0.004260676 -0.00987297 0.0038919444 0.00853489 -0.00015097951 0.0023833069 -0.0038326322 -0.0050123665 -0.008055621 -0.007558803 -0.008398622 -0.006535665 0.00973696 0.009296408 -0.0013070042 0.00030723782 0.007946847 0.0019840442 -0.0046459027 0.0026088979 0.0015865526 -0.00415581 -0.0045175417 0.009369257 0.0071538687 -0.009204728 -0.0044712247 0.0011890256 0.0012939771 -0.00852731 0.010027398 -0.0047531337 0.004887405 0.009973146 0.0016341932 0.0042758198 -0.0025241007 -0.0087708235 0.0014118333 -0.0006335907 -0.010585906 0.007539373 -0.007379581
spider 0.004671361 -0.0039165583 -0.00914014 -0.008741425 0.0061796266 -0.006227679 0.005576726 -0.00019923829 0.009115966 0.0067757317 0.009828127 0.007058017 -0.007837896 -0.008898426 -0.0054598604 -0.00077146624 0.0052810623 0.0029080657 -0.00203619 0.0037749328 -0.0031955452 -0.0063513895 0.0050791143 -0.010274187 0.00071306125 -0.004792642 0.00709591 -0.0041596955 0.0019284241 -0.006145092 0.010638746 -0.00547772 0.003993391 0.0031609333 0.008435744 -0.004547065 -0.0041127913 -0.0065529034 0.0057872348 -0.0053085103 0.0050283275 -0.0015519743 0.006844183 -0.0058090026 0.00059025857 -0.0004086974 -0.008951072 0.0085256 -0.0018481889 0.0067685125 0.0005454486 0.0044573336 0.0022114438 0.008832422 -0.008795978 0.008962339 0.0089708 0.0007870942 0.0038026583 0.0039920863 0.0040718718 -0.0028470755 0.0029907434 0.00058068737 0.0038796433 0.008941688 -0.0075080045 0.00087360886 -0.009374615 -0.00034940965 -0.009294452 0.0033981742 -0.0011959042 -0.00065446674 0.0071844473 -0.007678492 0.0011222089 -0.0026286554 -0.0040649683 -0.0068273805 -0.008373949 0.00785611 -0.0080019785 0.005896984 -0.004195083 -0.0008082643 0.0027942157 -0.007959501 -0.0050405744 -0.007443937 -0.008599019 -0.0041675074 -0.0031384574 0.0007107713 0.00033301747 -0.006952219 -0.0035190603 -0.0034033288 -0.0059458367 -0.0062911375
with -0.0031148128 -0.007294075 -0.008268697 -0.0073173987 0.0035597899 -0.008859369 -0.0032598441 0.008389967 0.006742588 -0.006908329 0.0066831545 -0.009464692 0.00013329634 0.00753555 -0.002613102 0.009076461 1.8981273e-05 0.0037084492 0.0070560975 -0.010225257 -0.0059419083 -0.0067423265 -0.0007547554 -0.0075954604 -0.00010389778 -0.007751167 -9.315349e-05 -0.001065867 0.0052908133 -0.008678693 -0.001844178 0.0061001657 0.009837133 -0.0021132308 7.096875e-05 -0.004774427 0.00110992 -0.008488856 -0.008288872 0.00038461472 0.00011116291 0.0046567367 -0.01034059 0.0020258361 0.0024537372 -0.005529861 -0.0005386935 0.005741094 -0.006306004 0.00068156293 0.00440366 0.0012000544 0.0029098594 0.00822819 0.006128231 0.004041061 0.0084603615 -0.008025387 0.0066485438 0.0039777323 -0.0058788173 -0.004013496 0.0065227486 0.0056421077 -0.011086162 0.0018962815 -3.3932512e-05 0.0016859785 0.0061136195 -0.0057900497 0.009333704 -0.009028584 0.0067886324 0.009404657 -0.002824485 -0.008945142 0.0061345785 -0.008988453 -0.008799403 -0.00036591163 -0.0071689417 0.008231153 0.007178735 0.002257217 0.007386769 0.010410972 0.005311498 0.0052546742 0.0061538923 0.0067876824 0.005892147 0.007268028 -0.007508833 0.009260406 0.009440231 0.010488417 -0.008675851 -0.0042926306 0.00022077232 0.004320425
out -0.008494262 0.00058434723 0.006076973 0.0098439595 -0.0028109304 0.0008480838 0.006580621 -0.00073292205 0.0013760002 -0.0096847685 0.0005704551 0.0032428633 0.004540634 -0.009024893 -0.005016372 0.0028468703 0.0019184422 -0.0054414007 0.0058359187 0.0021541687 -0.0077132056 0.0102586225 -0.007284279 -0.0034025451 0.009561294 0.0012156594 -0.006172299 0.0006491925 -0.004909916 -0.0066663353 -0.0068913004 0.005003688 -0.008534577 0.0038257355 -0.0060360483 0.006398547 -0.0041517965 -0.005820703 0.0057471907 -0.009449866 0.0014939065 -0.0028033417 -0.0071146707 -0.0074162665 0.0074167373 -0.0047340393 0.0042075184 -0.009992181 0.0020181753 -0.0015658591 -0.0055877515 -0.0031677445 -0.008706504 -0.003430838 -0.0028550518 -0.0018861262 -0.0047636856 -0.009541737 0.004771126 -0.0012191157 0.006174704 0.003116635 0.0086411815 -0.003658146 -0.009901653 0.0018212983 -0.008652245 0.0066223093 0.0077102687 0.0016154192 0.00740675 0.008840461 0.0045483364 0.005348551 0.009960621 0.0015057662 -0.008214517 -0.008468745 -0.0021757053 -0.00029754319 0.008439949 -0.009767683 -0.0032743015 0.010264903 -0.0020305545 -0.00866315 0.0020002932 -0.0051494725 -0.004892946 -0.0060422365 0.0009468612 0.007696693 0.0040591788 0.008510104 0.009749486 0.005381986 -0.005849744 0.006554806 -0.00919374 -0.004650324
how 0.007627207 0.008391988 -0.0055480944 -0.0076773516 0.0078642545 -0.004787897 -0.0037258498 0.008406697 0.00498189 0.003422728 -0.0012827436 0.0075131455 0.008432533 0.007600739 0.009305641 -0.0058666007 0.0012744705 -0.0023357463 0.006373538 0.008555999 0.005390635 0.004512481 0.0069113104 0.005601792 -6.310568e-05 -0.008159585 -0.0027614506 0.008519685 -0.005861191 0.0011493776 0.0058232844 -0.0067388956 0.008712237 0.0013706988 0.0019579646 0.009259984 0.0016494637 0.0006154699 -0.009989178 0.00908668 -0.009760556 0.00794604 0.004759951 7.696813e-05 -0.007152785 0.008987179 -0.0017953858 0.005032551 -0.0028583007 -0.0046160263 0.0005100219 -0.008410897 -0.0066676084 -0.00942212 0.004949303 0.00086378417 -0.00064672524 0.0049206214 -0.0025471076 -0.0072449837 0.0029331632 -0.005976904 0.00060032157 0.009308849 -0.0019633688 0.0067192353 0.0046688966 -0.0029225952 -0.0058260146 0.0100190835 0.0018114035 -0.00022327511 0.0012330571 -0.0049194065 0.0042218445 -0.0027252967 0.004179872 -0.004733203 -0.001243539 0.0043189256 -0.007413241 -0.003012397 -0.009333325 0.0026196814 0.0016043105 0.0028517363 0.0010663023 0.00067749334 0.0028731292 -0.0006070588 0.0067316364 -0.0024520024 -0.005209885 -0.0050553028 -0.008821657 -0.007332669 0.0024174512 0.0033781151 -0.0053125727 -0.009695266
eight -0.006545542 0.0051543987 -0.009001943 0.0053953477 0.006326368 0.005120899 -0.0072021983 0.004072513 -0.006092316 0.008714964 -0.0043803365 -0.00374132 0.0053179716 -4.509795e-05 0.0052425656 -0.0042389296 0.00538278 -0.010621936 0.006023483 -0.002614553 -0.0054933745 0.0005300982 -0.00092473143 -0.0011028458 -0.0019035307 -0.009070526 -0.00831189 -0.0072285677 -0.009528895 -0.004494078 0.010256971 -0.0016035641 -0.00717289 -0.006039377 0.003125633 -0.0016511095 -0.0013241841 -0.0045158006 0.0055752974 -0.008573773 -0.007369654 0.0068550035 -0.0073020854 0.0022475256 0.0010581259 0.00935892 0.0038090087 0.0018073935 0.0030163245 0.002632601 0.0026290503 -0.0032375343 0.004063749 0.006178204 0.008477752 -0.00035716 -0.00075218856 0.006214683 -0.009094245 -0.00042290124 -0.0066739637 0.004757431 -0.008823891 0.0031827542 0.008000673 -0.0015027123 -0.008617788 -0.007462479 0.002645691 -0.004240766 0.006126364 -0.0008885814 0.0082613425 -0.0004909301 -0.005412493 -0.005337108 0.00085129647 -0.005030321 0.0061784936 -0.0030379058 -0.0060146498 0.00054162723 -0.0054786126 -0.007092614 -0.005787854 -0.0014866913 0.0004009506 0.0043518115 0.007570419 0.0070548397 0.0066491105 0.000933691 -0.0058200257 0.009436654 0.00022051184 0.00562297 -0.0010283772 0.005236889 0.0057927584 -0.007128585
patience -0.003101726 0.00048152948 0.0020423091 -0.009175494 0.0047918726 0.002485499 0.0001698379 -0.0024011654 -0.008126806 0.0072345193 -0.008665837 -0.008608183 0.004525357 -0.007945283 -0.0031677803 -0.0021581384 -0.0015836045 -0.0075862156 0.004316616 -0.00015767844 0.0038609877 -0.0009655575 0.0072004055 -0.00988454 0.0056838007 -0.004897353 0.0012748225 -0.00728893 -0.003293473 -0.006382695 -0.0024081399 0.009885001 0.0030643307 0.0013129632 -0.0065450473 0.0064389315 -0.007947554 -0.0025115283 -0.0069225095 -0.0070543536 0.0024104556 -0.0038972262 0.0020536995 0.0041000377 -0.0056509655 -0.002041189 -0.0031850478 -0.0100557 -0.009648398 0.001474353 0.0047388687 -0.00015330409 -0.0048832064 0.0036527058 0.0013467253 -0.009066558 0.007546156 0.007565462 -0.008360028 -0.00061386183 0.0060462765 -0.0027728078 -0.00021632205 -0.0043677804 0.0051961327 0.0074999845 0.0023142856 -0.004054786 -0.0023629246 -0.0029395553 -0.010073114 0.008082962 -0.00016572137 -0.0006443687 0.007710055 -0.00865806 0.0063467184 -0.0077169193 -0.0056981677 0.005430402 -0.003949923 -0.0038938622 -0.0069195833 -0.0029144846 -0.0031598266 -0.0037275401 0.009444707 0.010075915 0.00018247603 -8.629677e-05 -0.0049071684 0.008510494 -0.0048855618 0.0061871964 0.009928132 0.0065311817 -0.0007904906 0.004984296 0.0072794445 -0.003751898
! 0.00034110312 0.0069742375 0.005908245 7.8426434e-05 0.0024232848 -0.0075382073 -0.009036591 -0.003672629 -0.006019384 0.00018578926 -0.0041696425 -0.0017929169 0.007688873 0.010577819 0.007954263 0.002298977 -0.0023733804 0.00164767 -0.002672811 -0.010328439 0.0070655774 -0.008209276 0.0041887844 -0.0043359576 -0.005684647 -0.00088032545 -0.007170293 0.008084893 -0.0077298637 -0.008818945 0.006706655 0.004691061 0.005200354 0.0022414797 -0.004364919 -0.004142211 0.0021316374 0.008198513 -0.006228005 -0.0032506944 0.0020396917 0.0060278364 -0.006814447 -0.0043316763 -0.0018413326 0.0010781625 0.004959995 0.0051282775 -0.008563278 0.0076722964 -0.002115947 -0.0033360084 -0.008906987 -0.005730631 0.009149585 0.0035190615 -0.0076574357 0.0024736866 -0.007778806 -0.0090691615 0.0038486137 0.002057339 0.0014077286 0.008693638 0.005296433 -0.004565068 0.0030461333 0.0031140791 0.0016833016 0.00952781 -0.007267586 -0.0020115452 0.0014239362 0.006314835 0.0001887821 0.008201034 -0.004640417 -0.009132439 -0.0073891785 -0.003773904 0.00921738 -0.005710532 -0.0055933637 0.009392204 -0.008020954 0.0023521339 0.005677643 -0.0068115513 0.00034102454 -0.0020592497 0.006424967 -0.003994438 -0.006623017 0.010191317 -0.0036583194 0.008404492 -0.008160989 0.0064902324 -0.0031039405 -0.0076051927
king -0.0016200237 -0.0018150642 -0.0018195516 -0.0009178214 -0.0064199525 -0.004694122 -0.0027756467 0.009272914 0.0052277152 -0.0013726861 -0.0049203336 0.0037581036 -0.008780355 0.0023448411 0.0041337376 -0.0021003846 -0.0042844433 -0.009167827 -0.008314602 0.0057009505 0.0037669912 6.016713e-05 0.010180305 -0.008933069 0.0004450415 -0.00030751832 -0.008634735 -0.009604923 0.006228793 -0.0035494415 -0.006652723 0.008192719 -0.0057126787 -0.0033487515 0.00110477 -0.002312699 -0.007709403 -0.004310496 -0.009650816 0.00050681666 -0.0044468776 -0.0007491305 0.0022225133 -0.0020573165 0.009535136 0.006883251 -0.0011153198 -0.0009761827 0.000992753 0.0071522193 0.009397532 -0.0024117106 -0.0015908895 -0.0030385877 -5.0729424e-05 -0.006075153 -0.0014175607 -0.008990049 -0.00014845465 0.0015108981 0.0037815203 -0.0027663645 0.006050122 -0.0073228613 0.008695418 0.0011021816 0.002642655 0.0050338455 -0.00047603666 0.0037944708 0.0013093271 -0.009296793 -0.0027096034 -0.0026388997 -0.0084352475 0.0037882535 0.00476137 -0.0021284244 0.006976076 -0.00078110077 -0.0007114857 0.005345605 -0.009095275 -0.0055755503 0.0067203315 -0.0061807125 0.008624377 0.0061203334 -0.007408891 0.008588283 0.007281109 -0.0060187047 -0.008545612 -0.008474904 0.004926981 0.007328311 -0.0018676453 0.0006193494 -0.008007883 -0.004961924
move 0.004444157 -0.008664947 -0.009326416 0.0013170589 -0.008624551 -0.008040009 0.005199476 0.009356547 -0.007979494 0.0077247065 0.009304274 0.0033621972 -0.0044138897 0.010433201 -0.0074763102 -0.0039637666 0.0022583182 -0.008448572 -0.009841622 0.0013876284 0.008375422 -0.0047728876 -0.003752431 0.0034151452 0.0005109201 -0.008367375 0.006010025 -0.0036394545 0.00260957 0.0032021597 0.010082539 0.008894971 0.007795189 -0.00848627 0.0007773571 4.2904817e-06 0.0010002938 0.00869305 0.0041878773 -0.0097063165 0.010026441 -0.0016680192 -6.5394954e-05 0.0052929935 -0.0054690614 -0.0007882919 0.00095060305 0.006621081 0.0045697214 -0.0015571998 -0.008035459 -0.004242897 0.008767009 -0.009388751 0.009520382 0.00021162363 -0.0007769142 0.009329925 0.00883441 0.008471674 0.009032238 -0.010055056 0.007685889 -0.009574813 -0.008876484 -0.008203587 0.0025114217 0.007960094 -0.0069793095 -0.0015992083 -0.0027542622 -0.004187513 -0.0008128086 0.0048562083 0.0044555166 -0.002745311 -0.0036470918 -0.0024984123 -0.003674715 0.004442638 0.009318358 0.007375074 -0.008323613 -0.005280647 -0.009634603 -0.0055208406 0.0037191696 -0.0052616484 0.0024748924 0.009318319 0.0041677603 0.0018216396 0.008972773 0.0068011847 -0.0004634682 -0.0052279187 -0.000789225 0.0066648303 0.008030271 -0.0039258306
bliss 0.009549692 0.0029716592 0.005096758 -0.0053858175 0.0043453206 -0.0009788114 -0.009194342 0.0065822224 -0.009812796 -0.006958496 0.0026281069 0.007650575 -0.0020339533 0.007814249 0.005308968 0.0040451824 -0.005802288 0.004202298 -0.00825861 -0.0059277266 0.005590566 -0.0076443665 0.006250037 -0.004004311 -0.00031822996 -0.007129782 -0.00700451 -0.003916435 0.0074681505 0.0054140445 -0.00850923 -0.0065134685 0.0039023447 -0.008766267 0.0060656676 0.0073514273 -0.00898709 0.0085599935 0.0071767746 -0.0026727994 0.0020404705 -0.0066160583 0.0056722127 0.008000887 0.0049041077 -0.009238938 0.004503461 -0.003441794 -0.001981199 0.0064891702 0.0023074208 0.0040223612 -0.0062702894 0.005351065 -0.004064066 0.00018272857 0.006668046 0.0036959182 0.006687963 -0.0038749117 0.0035396756 0.007441678 -0.0031376686 0.0055999784 -0.010614418 0.009582582 0.0041729277 0.0060705277 0.0038499227 0.005950279 -0.0036953732 -0.005850925 -0.0016843627 0.0012943109 -0.0020426854 -0.008012259 -0.006345189 0.008291239 0.008840208 0.006473798 -0.004622719 2.5254756e-05 -0.009401939 0.008032814 -0.00014963414 0.007859211 -0.0054348484 -0.0019728304 0.003694028 0.0038680993 -0.0055584926 -0.0066809454 0.0020800747 -0.008597359 0.0069556776 0.0065246443 -0.0034591744 -0.006313312 -0.007883641 -0.0017067902
3 0.0069012353 0.00019586518 -0.008042183 0.009120872 -0.008512693 0.0047529065 0.006863274 0.0019744937 -0.009206113 0.005865541 -0.007853769 -0.006178547 0.009710778 -0.007771772 -0.007659991 -0.0049843295 0.0037048236 0.0013285949 -0.0055507054 -0.0044044596 0.008777881 0.0100155 0.01027933 0.00075400184 0.003912051 0.0014966984 0.0013805074 0.0045533148 0.0015642018 0.0003265449 -0.0024250792 -0.0062958207 0.008402955 -0.0062589436 0.0024262632 -0.00021683557 -0.0033924861 -0.0051651318 0.0028482303 -0.00648697 -0.0074708816 -0.0032131884 0.004468017 0.006237749 -0.00081309275 0.0071722674 -0.007927121 -0.005062416 -0.007671054 -0.0057671824 0.0075903228 -0.009647302 -0.00872567 -0.009847719 0.008990892 -0.0024210475 0.0012462146 -0.0062966687 -0.0031022758 0.00024594815 -0.002466442 -0.0074254693 -0.006097925 0.002422782 -0.010356553 0.0016409671 -0.0018303711 0.008961134 -0.00080650917 0.0070841415 -0.007381793 -0.007441242 0.005961238 0.0009413598 -0.004451848 -0.0024333943 0.008871623 -0.009307688 -0.0039054027 0.0013298584 -0.00063023955 0.009210569 -0.0024471486 -0.006317651 -0.008047811 -0.009626225 -0.007693241 -0.005459458 -0.0054628854 -0.0012735686 0.00011672328 -0.004251191 0.0022136578 0.004139271 0.009831891 -0.004064403 0.005319864 0.006759023 -0.0034831478 -0.00731348
2 -0.003777158 -0.006381149 0.0064024273 0.009750358 0.00817197 -0.009704468 0.005487049 0.006521457 0.005035772 -0.008662485 3.8058057e-05 -0.008347171 -0.008820154 0.0033172003 0.010093254 0.006560911 -0.0066396464 0.00145382 -0.0039035531 0.008485836 -0.008638013 0.010288654 -0.006138024 -0.0074804276 0.001395081 -0.00044157647 -0.009150595 -0.0011004051 -0.0014055992 -0.0062322924 0.006970328 0.003361888 0.0089118555 0.007211701 -0.0071280967 0.005906091 0.005894396 0.005535759 0.0046866094 -0.0055154273 0.0045147366 0.0006574329 -0.0002932502 -0.0062052044 0.0023147513 0.0049425885 -0.009720321 0.0082279015 0.0032468473 0.0002676788 -0.002951018 -0.00017227909 0.0060978127 0.00484136 -0.0064125936 0.008346443 -0.00023557496 -0.008383587 0.008124671 0.0053168936 0.0036746901 0.007806219 -0.0074633686 -0.0059024883 -0.003146213 -0.0034540114 -0.0014363938 0.0001758946 -0.009075576 0.0031390367 0.002208928 -0.0005785191 0.0053281155 0.0014345333 0.0068861563 -0.0017824837 0.008665037 -0.0018359782 0.002669415 -0.0031705056 0.005644871 0.002578015 -0.00010241353 0.009939235 -0.008411972 0.01013722 0.0007904185 -0.001548907 -0.0034358304 -0.008751036 -0.001271792 0.003326213 0.0066387914 0.009527089 -0.0077485084 0.0100088455 -0.008449926 0.0030910827 0.008584882 -0.0022621
if -0.008301978 -0.007885573 0.0012057562 -0.0004530558 -0.009617153 0.0020707948 0.0026663244 0.0058222534 0.0038321093 0.0027858065 -0.009788103 0.0045304946 0.004335773 -0.0070708613 -0.0019217059 0.00018336621 -0.0004480052 -0.0016779097 -0.005648585 -0.0012644306 0.0046907575 -0.00028457394 0.0011864827 0.0018545002 -0.0042009363 -0.007754869 0.008586626 -0.010284561 -0.0033018817 -0.0012073853 -0.006604228 0.001920794 0.008363061 -0.0016073996 0.0076622465 0.001260054 -0.005501027 -0.0024268273 -0.0011275987 0.0055172336 0.0074065314 0.0055092266 -0.0064692623 -0.0068719373 0.006740052 0.0021484522 0.004893449 0.00026663535 0.008116495 -0.008633636 0.01031899 -0.008670243 -0.0017544706 0.006213183 -0.009691791 0.004814867 -0.006597572 -0.007091255 0.0016586448 0.001962153 -0.002828396 0.008006953 -0.0068560774 0.00014011783 0.0077363364 0.0026361742 -0.006676621 0.004153669 -0.005807284 0.0016931769 0.0025788213 0.007824312 0.0076597207 -0.0049014087 0.010266094 -0.0050702807 0.0075549725 -0.008158798 -0.008353765 -0.0006846175 -0.008440076 -0.0038256214 -0.0010854505 0.0011695643 -0.010443046 -0.0059948796 -0.0074320766 0.0002499075 0.0059771393 0.0002919414 0.010826248 -0.0033453093 0.007989557 0.0063761645 0.009307862 0.00096558756 -0.00014835515 0.0011974094 -0.009424943 0.009047262
only -0.002742851 0.008030292 0.0020849118 0.0031128943 -0.0012774053 -0.010924896 0.0017692379 0.0041853082 -0.010292654 -0.0043176464 -0.0023905423 -0.0063521108 0.0040038996 0.0028191507 0.0044860165 -0.0066134306 -0.005775943 0.0039769425 0.0067529613 0.0042618006 0.0050096028 -0.00681077 0.008615999 -0.00724727 -0.007833697 0.008723108 -0.0029349283 -0.009808133 -0.0038128183 0.005992203 -0.001854799 0.0051517882 0.00057719764 0.0038680283 0.0006064575 -0.008414509 -0.0034245874 0.0086429 0.0009436822 -0.006704415 0.007147418 0.006855042 0.0068727224 0.00019427176 -0.008472184 -0.003767827 0.004651451 -0.0068491776 0.009957343 -0.009512495 -0.00772522 -0.0057188645 0.0059649437 -0.007642127 0.008282101 -0.009552146 0.0038123047 0.0030395235 -0.00067093293 0.0096290205 0.005110919 0.00033326363 0.0049753287 0.006172443 0.002057731 0.009883514 -0.0011324479 -0.0077883266 -0.00519867 -0.00044396243 -0.0074937814 -0.0012982261 0.008297486 -0.0050485795 0.0058919564 0.0046940967 -0.0006731186 0.0009027721 0.0052813934 -0.0062834113 0.003500515 0.008468471 -0.0041201087 -0.0066256532 -0.009633977 -0.008593911 0.0038980364 0.005753488 0.0075608003 -0.0011870541 0.0017744906 0.0035389438 -0.00992538 -0.009116052 0.0055047465 -0.0075848405 -0.002954651 -0.004914618 0.006251063 -0.003328798
stock 0.009500783 0.0010857992 -0.0051586423 -0.0033946766 0.0012223355 -0.006504488 0.007841193 0.0104486905 0.0036326796 -0.007758464 -0.0060169925 -0.0012354953 -0.00104354 -0.004901477 0.008167786 0.006156764 -0.0039210697 0.0016277987 0.005083769 0.00096240913 0.008730873 -0.000870033 -0.006103869 -0.0011346485 -0.008620217 0.010025453 -0.009195623 -0.0019748388 -0.0037796956 0.0031573903 0.0061594546 -0.008132827 -0.003961362 0.00033009815 0.0034939633 0.0060447534 -0.0011378147 -0.00087596773 -0.008336124 0.00370448 -0.007446014 0.0025872493 -0.003946582 -0.007651203 0.0075598415 -0.0007233543 -0.010056244 -0.009646274 0.00088437455 -0.007817122 0.004178309 0.0030222181 0.0033750616 -0.0055700284 0.007515302 -0.008589999 0.00792649 -0.0009004065 -0.0022311588 0.0041781086 -0.0024872203 -0.004346889 -0.002227994 -0.0064437897 -0.0013672124 -0.004781905 0.004909276 -0.008943802 -0.0051146 -0.008018753 -0.00997446 -0.0005329888 -0.007690863 -0.0057163555 0.0034149112 -0.0010558165 0.0030934226 0.008238103 -0.010070263 0.006496955 -0.008317264 0.0061300253 0.006857786 0.009772012 -0.008450584 0.0037690713 -0.0078184195 -0.00039696335 -0.0044817976 -0.008185196 0.0057981117 0.0050898404 -0.0041100266 -0.007535235 0.0045077098 -0.0029964151 -0.0085954545 -0.0050542853 -0.001669181 0.008912954
each -0.0067211897 0.00768085 0.0060887802 -0.0046687964 -0.001831406 -0.0033097449 0.003395782 0.0005897364 -0.003216089 -0.009438186 0.0064645633 -0.010631283 -0.008617983 0.001902328 0.0031165637 -8.303258e-05 0.00062936096 0.0020032022 0.0017819749 0.0065335077 -0.0032724864 -0.0070301676 -0.007473547 0.007675553 0.0018285739 -0.005680628 0.0059773317 0.008174656 0.0073368736 -0.0068007847 -0.0042836573 -0.0019017968 -0.006274812 0.0045763324 0.005341141 -0.005297891 0.007344969 -0.007964869 0.005784102 -0.0052571693 0.0020544017 -0.0037758327 0.0031118542 0.007910198 -0.00081071205 -0.0053009386 -0.008917276 0.0032920903 0.00447757 0.006926626 -0.003996986 -0.009996527 0.006821699 -0.0045527937 0.004190491 0.008423322 -0.0036664065 0.0014466892 -0.0041101775 -0.0064668506 -0.0056674425 -0.0001949937 -0.0073779393 -0.0021736333 -0.0033833112 0.007193134 0.0015824288 0.006405113 0.0032492944 -0.0026399542 -0.0053280885 0.009929785 0.0074355872 -0.008934505 0.005790248 0.008588322 0.009276877 -0.008233044 -0.002415199 0.0014665668 0.002662698 -0.0019703773 -0.0052047055 0.0072935196 0.0065549808 -7.747078e-05 -0.0058047078 -0.0038780267 -0.0044777766 0.004564474 0.0010968158 -0.0019544004 -0.009068028 -0.001278895 0.0072674663 0.007089173 0.0044322247 -0.0033958748 0.009483402 0.0006879322
top 0.00069830485 0.006689929 -0.006701519 0.006753139 0.009796168 0.0026778695 0.0038615577 0.005551344 -0.0024005496 -0.008556321 0.0014991647 -0.00030982983 -0.0067925616 0.002543765 0.0055299895 -0.007192057 0.002802787 0.007101441 -0.008706732 0.002340916 -0.008316309 -0.007547565 0.0075184433 -0.007841879 -0.0014387603 -0.0076287547 -0.008260252 -0.0074358643 -0.0002428783 0.0018579012 -0.006802345 -0.007843602 -0.0026621153 -0.001963028 -0.0067110453 -0.0033913378 0.0038556058 0.002755889 0.0061843065 0.0034849644 -0.0007543077 0.0021282388 0.008707952 0.0019688113 0.0024590923 0.0010147579 -0.009819432 0.005058887 0.0053564534 0.00027607213 0.009635864 -0.006116915 0.0032319904 -0.007899408 -0.009401663 0.0023286315 0.005088198 0.005958639 -0.0094271265 0.004464776 0.0024675413 0.004222297 -0.0005425788 0.0052796276 0.006401466 -0.007926433 -0.009757408 0.007607729 -0.0016373137 -0.008337067 -0.004379686 0.0013928232 0.008796793 -0.0016729655 -0.00042791254 -0.0071200924 -0.007606234 0.0013234621 -0.00084484386 -0.007363794 0.0005151215 -0.009373622 -0.0029894398 0.0051463 0.0006773569 0.008150691 0.0066511864 -0.00065807847 0.0056071905 0.006288153 0.0094614895 0.009615386 0.004936718 0.004864307 0.008145531 -0.0007959907 -0.0054352065 0.0082262475 0.0015052564 -0.0049892953
deal -0.0011586777 -0.0048273536 0.0091406265 0.0036255356 0.0043585543 0.0056102686 0.008572693 -0.0035916257 -0.0068986 -0.0040118867 -0.0037300866 -0.010674412 -0.0005365283 -0.0074799675 0.009895776 -0.0034689798 -0.005957376 -0.008819728 -0.0035549777 -0.010729204 0.0010017166 0.0058187614 -0.0025191586 0.0072735753 -0.0019896482 -0.0071254596 -0.0036197926 -0.0035234792 -0.007883515 -0.009644773 -0.0029891531 -0.001379857 0.0054062335 -0.007817336 -0.0054632747 0.002217346 -0.0015095115 0.003345489 -0.0023736742 0.003669304 0.008203496 -0.008488841 0.0034685005 0.0061677345 3.3281834e-05 0.0065533025 -0.005810015 -0.004830494 -0.007613526 0.009779148 -0.009032188 -0.003620457 -0.000526804 -0.0047685117 0.009148941 -0.0065604 -0.007714913 0.009038091 -0.008959044 0.0098061375 -0.004094715 0.0056584384 -0.0002647523 -0.0041705337 -0.00837421 -0.005798643 0.007013863 0.0069420417 -0.00043566764 0.007343156 0.0036529729 0.004089394 0.003134421 -0.009748991 0.01002773 -0.007918578 -0.002973172 0.0012770536 0.0049036266 -0.008878379 0.0012533632 0.006021067 -0.009353459 0.010648166 -0.0056187385 0.010005762 -0.0064304615 0.0072176573 0.009955652 -0.008982596 0.0010549318 -0.0072555537 0.008176647 0.009913024 -0.0051933667 0.0015824587 -0.0020622537 -0.008339027 0.0011862678 -0.009839092
will 0.0024089823 -0.0073794983 0.005664099 0.0077775065 -0.0026218581 -0.0046790047 -0.009372764 0.0058133616 0.0025325238 0.008486885 0.0032181374 -0.0038188538 0.003491238 0.00911449 0.009383759 0.0075420393 -0.008319062 -0.008112278 0.007301173 -0.0084877135 0.0033497675 0.008346136 -0.002877205 0.0065818247 -0.008268333 0.0065996824 0.0051455316 0.0029674745 -0.008801786 0.009286708 0.009047236 -0.0014283285 0.0045646033 0.0062080063 -0.0021700927 0.006158988 -0.003873359 -0.0015392911 -0.0015909873 -0.0047616344 -0.0005481889 -0.008239574 0.0034118444 0.00921313 0.005382657 0.0060856324 -0.0050287056 0.004577368 -0.006510556 -0.00475015 0.010120961 0.006199765 -0.005047843 -0.005921773 0.007036149 0.003071341 0.006861471 -0.0069274697 -0.0014811497 -0.0007275773 -0.00018309383 0.002181031 -0.006653261 0.00423679 -0.0035325566 0.008776879 -0.00080332725 0.009731917 -0.0012731232 0.0061833747 -0.0078050233 -0.00887864 -7.2020844e-06 -0.0022433253 0.01056208 0.004874275 -0.0055882903 0.0072351857 0.0002873938 -0.009255465 0.0054179863 -0.0024448049 -0.009955731 0.009540668 0.0068783234 0.0089011025 0.0004510601 0.0082099475 0.0057808356 -0.006734234 0.009850147 -0.003063571 -0.00976302 0.008755944 -0.0046462794 0.009050913 -0.0076819113 0.008780952 -0.005563833 0.004062833
numbered 0.009332726 0.0046899165 -0.0021083078 -0.0047420077 -0.009843921 0.0031748516 0.007840483 -0.0034495688 0.005410699 0.0064194184 -0.009146185 0.0008856424 -0.0069152764 -0.0037940203 0.0010383978 -0.0071261893 -0.0038604378 -0.008186491 -0.007026955 -0.008088641 0.010114334 0.008785709 0.00022085044 -0.0030004075 0.0060933647 0.0015886135 -0.009549855 -0.0074894186 0.00025287343 0.007982521 0.004170179 0.009999868 0.0069864336 0.00020791942 0.008228236 0.009964135 0.00837552 0.00912506 -0.009904992 0.0028251286 -0.007713759 -0.0077672834 -0.008925998 0.0032557 0.00057467946 -0.006577273 0.005020679 0.0077585382 0.00460269 0.008144229 -0.003913642 -0.006794984 0.0040406277 -0.0027593605 -0.0075907125 0.0041193175 -0.0029446408 -0.0055074506 0.002029628 0.007028435 0.006364983 0.00022985977 0.008804511 0.0028121076 0.0056430367 -0.00036714287 0.0023700302 0.006729138 -0.01048589 0.0069383825 0.0010176925 0.0063214907 -0.0010585412 -0.0027296 -0.005074213 -0.00259264 -0.0026066895 -0.0052716476 0.00058622245 0.008343942 0.004765034 -0.008075304 -0.007922811 -0.0018936464 0.0035049168 -0.00890266 0.0060774093 0.0037417354 -0.0021177488 0.009560823 0.00873978 0.0012945232 0.004837179 -0.009091253 -0.007890946 -0.0021385245 0.009447332 0.0026221208 0.006019573 -0.006684379
moved 0.0038325689 0.0010013859 -0.00097243866 -0.003076796 0.005014403 -0.010275141 0.005582778 0.007254119 -0.0028500145 -0.00465161 -0.0074041123 -0.007867797 -0.0050667203 0.003892847 -0.004665529 -0.001178111 -0.008590975 -0.0043302504 -0.00084786926 -0.009344112 0.0034063319 0.010229775 0.0048878635 0.001468294 -0.0048948186 -0.0008360476 0.0018346796 0.0012898229 0.008007891 -0.000787323 0.008179669 0.0059899935 0.0037696317 0.007205316 -0.0055163275 -0.00294703 0.007262508 0.008332938 0.002604787 -0.005022155 0.007744263 0.002060228 -0.00060811173 0.009084183 0.005081265 0.003878613 -0.00061343354 -0.009253914 -0.002942725 0.0027134956 -0.005205972 0.006661643 0.007431399 -0.008908709 -0.0058436356 -0.0057176114 -0.00030880215 -0.0020750111 -0.002934405 -0.002113873 0.0036811547 0.009680296 -0.0044934303 -0.00843373 0.0026835643 -0.005888366 0.0068929815 0.0032839454 -0.00872462 -0.0066604973 -0.009615147 0.0025991027 0.0031527479 0.0025615194 0.00089154154 0.0013710541 0.0031441627 -0.0017286321 -0.008323638 -0.00016885257 0.003384908 -0.002996438 -0.002700699 -0.0011764719 0.0067706415 -0.0026764448 0.009571036 -0.003289566 -0.00942864 -0.0063655567 -0.003417141 0.0018732677 0.005160152 0.0025068335 0.010075143 0.001783496 0.005901428 -0.00046284276 -0.0017966714 0.0064186053
use 0.0017329969 0.0086100055 -0.008279125 -0.008569717 -0.0006394131 -0.002666554 -0.00210346 0.00039882035 -0.0055481843 -0.008403985 0.00819125 -0.004308271 -0.002816681 -0.0010969153 -0.0010727561 -0.009288131 -0.0015483481 -0.0019164975 0.008686066 -0.009031465 -0.0046490757 -0.0015894058 0.0032343678 -0.006346192 -0.005675115 -0.00788099 0.005057828 -0.009114636 -0.0038888264 0.000415666 0.0022084853 -0.009816413 0.008981735 -0.002183841 -0.000116117044 -0.008066619 -0.0079928925 0.0035790338 0.003598092 0.0022947087 0.0060421336 -0.0074790586 -0.0015812367 -0.0025691455 -0.0008598381 0.004245998 0.0010403877 -0.007730208 0.0033827005 0.0065642428 -0.005816669 0.0028459232 -0.0042990874 0.00888611 0.0037997174 0.0024513162 -0.0007102002 -0.009352794 0.00810982 -0.001726189 0.007351225 0.003865264 -0.008143599 -0.00079785474 0.0019049327 -0.0021632474 0.009958497 -0.0045247283 -0.0077183866 0.00466894 -0.0038462537 -0.006687229 0.0024194366 0.0052092583 -0.004935334 -0.004050223 -0.0071811588 0.0014229108 -0.0051599885 0.00875026 0.00046254433 0.0014165629 -0.0038613682 0.008261959 -0.0010480698 -0.007886236 -0.0073266164 0.00074218865 0.008245671 0.0033768457 -0.0046790424 -0.00632318 -0.009995459 0.004109858 -0.008764341 0.0039294483 0.0018392231 -0.0013125946 -0.009685682 0.005955136
do -0.00046428313 -0.009477424 -0.0074718534 0.008822039 0.0018629401 -0.00919942 -0.0005499069 0.0067637563 -0.009902196 -0.0072456687 -0.0011245478 -0.01101431 0.00060304755 0.0026608857 0.008660281 0.00087849726 0.0015405997 0.0041088895 -0.004273957 0.005905848 0.00032352548 -0.0002723167 -0.00929532 8.050938e-05 0.0065917987 0.0018624221 -0.008674109 -0.0037846784 -0.0068829386 0.0061159916 -0.005574404 0.0054096812 -0.004814688 -0.006989805 -0.008091075 0.0047599915 -0.008612543 -0.0060557164 -0.007644062 -0.0051359623 -0.0039030474 0.0008865833 0.006036606 -0.00094776845 -0.004799317 0.0012693824 0.0052424907 -0.005545722 -0.005236978 0.0055061886 0.006599883 -0.008169359 0.008207498 -0.009910327 -0.007772567 -0.0054710507 0.0021772604 -0.00029181797 0.0028786256 0.007207532 0.0048155976 -0.0031066046 -0.0063033956 -0.008522393 -0.0015109959 0.010228293 -0.007339558 0.004261725 0.0036531538 -0.0032712521 -0.0072122836 -0.005249304 -0.00477178 -0.0070831687 0.006742846 -0.007366801 -0.002958866 0.004182824 -0.00026317924 -0.007445028 -0.0050686314 0.0032109083 0.001934616 -0.0008105948 -0.0011842691 0.002972208 0.0014142907 -0.0019049898 0.006031714 -0.0074199005 0.0072388668 -0.009527261 -0.0022358482 0.0069736848 -0.0026554246 0.007474031 0.0057312255 -0.007962516 0.0001600527 -0.004436633
freecell -0.0085061025 -0.0003354835 0.00649844 0.009033937 -0.0051452033 -0.003686171 -0.0057424526 0.0024702768 0.0020786151 -0.010166761 0.00239047 -0.010178012 0.00051308144 0.0054924404 -0.0051771905 0.000204402 -0.0017737305 -0.009478604 -0.0024728207 0.0031544252 -0.008362156 -0.0054986733 -0.00014449088 0.0076638637 0.0012690085 0.009960571 -0.008134151 0.008659515 -0.0055480856 -0.006333957 -0.0068476945 0.0019593698 -0.0024031615 0.0075048483 -0.0010270067 0.0035154098 0.006260615 -0.00891902 -0.002423569 -0.0055442452 -0.0086242985 0.0027767546 0.0019863206 -0.002346596 -0.0012351162 -0.0069665555 -0.0036054184 0.00094386714 0.0080015315 0.0074557452 -0.0031936402 0.0030390685 -0.0025825656 -0.0046912683 -0.0040608114 -0.005732565 0.0039275144 -0.008135364 -0.008159832 -0.0043616104 0.007389332 0.0018579437 0.0056496197 0.0079680635 -0.007224258 -0.0042272513 0.007956972 0.005600832 0.004054592 0.010137975 0.008556169 -0.0024958511 0.0014470399 0.0055084596 0.009589939 0.010270752 -0.008199844 -0.0054165036 0.0046058283 0.0013298676 -0.00012295558 0.007056771 0.005754372 -0.0061903 -0.0030883916 -0.008156931 0.0069277952 0.0033855774 -0.0016018365 0.002170945 0.008419692 0.008713307 0.006286326 0.0034353118 0.002580111 0.009047758 0.0017134673 -8.067413e-05 -0.009159846 0.0026950382
) -0.008688257 0.00692992 -0.005880336 -0.001555767 0.0009649051 -0.002679129 -0.008805251 0.004996893 -0.0071335016 -0.009080608 0.0039067613 -0.0017595959 0.0066285296 -0.006524842 0.00086632697 -0.00071168266 0.0060300753 -0.010382251 0.005912681 -0.009990313 -0.007592667 0.0010113575 -0.0022901949 -0.004237516 -0.0054745693 0.0043298895 -0.009744385 0.0008792885 0.0036115816 -0.00022774315 0.00032649524 0.0072777625 -0.009226511 -0.009195058 0.0040734094 0.009400238 -0.007671883 -0.008551517 -0.0010851886 -0.009692051 0.0021939091 0.008709684 -0.006378132 -0.006631464 0.009483354 -0.00093106413 -0.0040543755 -0.0029776138 -0.008565317 -0.0043828515 -0.0038513157 -7.308465e-05 0.0005808408 0.007612708 0.0065747453 -0.0012776688 -0.009696464 0.0024000488 -0.00666879 0.009186671 0.0038309372 -0.0009995714 0.006660906 -0.0036129355 -0.004481044 0.000105632505 0.008653409 0.006497465 0.0010001615 0.0046825893 -0.0032296737 0.009420922 -0.006757248 -0.0032369783 -0.0047804574 0.008885869 -0.0030997153 -0.0024155392 0.0068507614 -0.00941176 -0.0032142254 0.002546994 -0.0067410264 0.00969829 0.0009052703 -0.005009601 0.0049271574 0.008565823 0.0014554986 0.006950117 -0.0062644472 -0.0031607244 0.010061121 0.005913989 0.0023955815 -0.0028917803 0.0046389136 0.0020677506 0.008621871 0.000113893744
( 0.008330451 -0.0052960664 -0.007659852 -0.0010873367 0.003024858 -0.0030758195 0.006245163 -0.007159966 -0.009634506 0.0072457525 0.0062870705 -0.005416856 -0.0039627934 -0.0029190574 6.0262264e-05 0.009007564 0.0012398618 -0.0028631708 -0.0034265353 -0.0033852658 -0.009037558 0.007276731 -0.008562809 -0.003464836 -0.007284906 0.009317072 0.0053243944 -0.0007932651 0.0031279032 -0.0023824563 0.010835538 -0.0034482896 0.005318357 -0.0039138924 0.00902472 0.010398149 0.0064623514 -0.00053083565 -0.0022140606 -0.009436894 0.009469022 -0.009142421 -0.006998076 0.0057478277 -0.0016462541 0.0077923588 -0.008299766 0.008876428 0.0025027015 -0.008247483 0.0043386067 -0.0053701927 0.006400099 0.0066163978 -0.0090894485 0.0067287064 0.0055843494 0.006226771 -0.007796935 -0.0064393547 -0.008850694 0.0053093447 -0.003914724 0.004663148 0.0038671806 0.008598961 0.0025646111 -0.0004127001 0.0007573994 0.0040559466 -0.009130312 -0.005800588 -0.0005289168 0.0048436183 0.0005315537 -0.009396615 -0.000627376 0.007114104 0.006082511 0.0037846644 -0.005073024 -0.0041368385 -0.0026391754 -0.0049263197 -0.009044107 -0.00026533136 0.0018565623 0.0055472734 0.0042513 0.008733262 -0.00596412 0.009853655 -0.0032600232 0.0011389825 -0.0032869575 -0.0032830664 -0.0012093064 -0.008063054 0.009263579 0.0047670207
us -0.0026240973 0.0024113574 0.007905207 -0.0054822117 0.0038093848 -0.0002738869 0.0032727898 -0.0008264291 -0.010536187 0.0055085677 -0.0015562873 -0.009678284 0.0008364005 -0.0054104715 0.00791903 -0.0065566166 -0.0014786872 -0.0011561221 -0.004200339 -0.0046814657 0.007397821 0.0022707975 -0.00911896 -0.0008214822 -0.0097874 -0.0029409304 0.0044991407 0.0031473893 -0.0068203965 0.0017176407 0.006879364 -0.0075021517 -0.00300602 -0.0026929276 -0.009524662 0.0030576687 0.0067503885 0.00229231 0.0018945589 -0.0014860537 -0.00067020784 -0.007074914 -0.00095621514 0.0069984333 0.0036781896 0.00021087273 0.007480693 0.0025621213 -0.007304125 0.0076097487 0.00998319 -0.009670523 0.0073166825 -0.0074840593 -0.0009283809 0.0051391125 -0.005456564 -0.008297554 -0.007901517 -0.009913717 -0.006709662 0.009743051 0.0030816654 -0.009187461 0.007591408 0.00776711 0.008220168 0.010378735 -0.009346082 -0.0011079739 0.0018086104 0.002775555 0.0054055867 -0.007906492 0.005622198 0.010445949 -0.009116633 0.007763431 0.0027974139 -0.003761078 -0.0020770524 -0.00907837 -0.008091617 0.0066317366 -0.0035593698 0.0104857115 -0.007993509 -0.0063673663 0.0068705184 0.008177733 0.004645894 0.007818677 0.0064578834 -0.005519959 0.009623719 -0.005370321 -0.002520744 -0.0066185836 0.006600927 -0.0043465877
may 0.00267218 -0.0010700743 -0.0012462516 -0.005621006 -0.00573237 -0.0045624305 0.0007032752 0.0027285193 -0.0038936536 0.0015379004 -0.005740678 0.008802601 -0.0008526163 -0.006441966 -0.001730201 0.007978288 -0.0007987526 -0.005871773 -0.008155672 -0.0070825913 -0.0030331472 0.008077001 -0.006817253 0.0010877026 -0.00013280218 0.004153242 -0.008421295 0.007633772 -0.0035327142 0.005451254 -0.008441813 0.0052273097 -0.0077908114 -0.0034641474 -0.0017910678 -0.0027511762 -0.00045507107 -0.00031792335 0.0041574882 -0.0030175708 -0.003920683 -0.006810478 0.008026676 0.0048053795 0.009745544 0.0053639286 -0.0050773066 0.007956079 -0.006721748 0.003368415 -0.0029870647 -0.00016021165 0.0037674836 -0.0028335599 -0.0048661456 -0.0015503268 0.00083506823 0.0062820665 -0.0065805567 0.004805294 -0.0036676272 -0.007858103 -0.005490176 0.0016782003 0.007909689 0.008304999 0.009394696 0.007487846 -0.0036390435 -0.0012843917 0.008486273 0.0067292443 0.006380761 0.0068887705 0.0022283702 0.002699493 -0.008222823 0.0074669686 0.00923067 -0.0067149703 0.00088035216 0.00833012 0.003170471 0.0079411045 0.0071973354 -0.0016177407 0.008891182 0.006662244 -0.001307679 0.00022902747 0.0105508 0.006469348 -0.0066864025 -0.0032927578 -0.0025014014 0.0039757243 0.0012950288 -0.009166454 0.0025050642 0.00969611
password 0.001977203 0.0047584577 0.0019271672 0.008331704 0.008877206 0.0021891976 -0.0022024368 0.0048778276 -0.00816205 0.0077092904 -0.004156365 0.008630794 -0.009631936 -0.0017721439 0.009008093 -0.0041332585 -0.0015979664 0.0043464224 0.009363622 -0.0017142968 -0.0066802613 0.010432115 -0.009294564 0.00096946274 0.005424711 -0.007584779 -0.0061583826 -0.009729746 -0.00082240585 0.005117062 -0.007290395 -0.0028302162 0.008974534 -0.0047381218 0.002664995 0.004493581 -0.0033485566 -0.0054745963 0.007797826 -0.0032990607 0.00911407 -0.0030894133 0.0025905545 0.005760757 0.0013034758 0.0041989526 -0.0064436304 0.008055175 -0.0014189282 -0.0040639574 0.005462638 0.00950206 -0.0057227584 0.0008745337 0.003994133 -0.002331045 0.0010477318 0.008513548 0.0070975823 -0.0064215036 -0.0031449352 0.00916701 -0.00022251342 -0.00967855 -0.0016914246 -0.0062794685 0.0011085026 0.0013482968 -0.0051305788 -0.0034189809 0.008450902 0.0048944466 0.0029399474 0.0017183712 0.008940867 -0.0047021075 0.006218729 -0.0010767351 -0.008006393 -0.009379785 -0.002074556 0.007620599 0.0016042864 -0.007888282 0.00066177576 -0.0032828674 -0.004041772 0.008861638 0.006476009 0.0007320418 0.003304847 0.0015056966 -0.00993947 0.0033186588 0.007980636 0.0048102634 0.002621375 -0.00411682 0.0026586705 -0.007392214
place 0.003973634 0.0027817548 -0.00042145478 -0.00040962073 0.0026264647 0.0014789804 0.0017551366 0.0100756725 0.0031152202 0.0011110723 -0.0029482157 -0.0069739334 -0.009293084 -0.0028179204 0.004500867 0.007458713 0.0008584195 -0.0053345948 0.0036174103 -0.0049588997 -0.0005987 0.009200635 0.008531757 -0.00067175226 -0.0060200067 0.0037951507 0.009345417 0.00829726 -0.0025547494 0.0072547756 0.0100030955 -0.009383053 0.009356026 -0.00013667891 -0.0055903625 0.0044260346 0.009056149 -0.007500447 0.0065007336 -0.0070175137 -0.007663251 0.0049432064 -0.0048518376 0.0049207313 0.007913111 0.00942087 0.005421191 -0.009170469 0.0034030266 -0.008743524 -0.00011889436 0.009538069 -0.0051415623 0.004208622 -0.0059399856 -0.0077763195 0.008270936 0.0031121923 0.0068047605 0.0030885641 0.0012138941 0.0036898958 -0.008322807 0.0063897707 -0.0053307796 0.0050248886 -0.005274613 0.0015515166 0.0035009235 -0.0015693564 -0.0077641816 -0.005864642 -0.009632221 0.009719796 -0.0038384476 -0.0006922318 -0.008998949 -0.004717752 -0.005164346 0.003302257 0.0053721503 0.0030737792 0.009338003 0.0026813368 0.009480633 0.007981338 0.002830741 0.0026839778 -0.007012232 -0.0021575175 0.0062392745 -0.0076933866 0.0022029474 -0.007323679 0.010343871 0.00055697915 0.001072358 -0.0052252077 0.006327984 -0.0071081375
klondike -0.007602604 0.00688557 -0.0032974635 -0.00073709624 0.005230045 0.0040670433 0.0063462765 0.0077557387 0.0053338436 -0.00926915 0.0050557572 0.0084101595 -0.0039718673 0.0014215908 -0.0031857952 -0.003453751 0.0088818725 -0.00072408875 0.0034606743 -0.006214469 0.00584099 -0.0031479946 -0.0047608367 0.0020000339 0.009638945 -0.0060482402 0.003210366 -0.0012776699 -0.0076463763 -0.004239972 -0.007747468 0.0056857346 -0.0025235286 -0.005302113 0.0007190856 0.0051730485 0.0096269585 -0.0099642575 -0.0005746307 -0.0017189862 -0.0026213678 -0.00092402723 0.007869441 -0.001734344 0.009742988 0.0001892363 -0.0012903158 0.0067502884 0.0069941524 0.0006471094 -0.00012106286 0.0061246185 -0.0038459725 0.0046347096 -0.00024553662 -0.005743712 0.0066132452 -0.004220032 0.0018446767 -0.0068086563 0.002700474 0.005646409 0.0052172095 -0.008193012 -0.0064919163 0.0073904307 0.0032590195 0.0015004133 -0.0066230157 -0.0007253491 -0.009392931 0.0014219072 -0.0042853225 0.0007451068 0.0049089817 0.0026320028 -0.007175955 0.000707775 -0.0069548725 -0.003653696 0.0017253691 0.007702542 -0.006891613 0.0029672259 0.007827918 0.010216893 0.006190097 -0.0069930097 0.004317081 0.008993317 0.004564968 0.002837466 -0.0016753026 0.0037357304 0.004670048 0.009361431 -0.0037706268 -0.009112285 0.006725575 -0.006208789
click -0.001014286 0.0018637136 -0.0010835241 -0.003874757 0.0008722459 -0.010669285 0.0017355817 -0.002967116 -0.0063870912 0.0034676127 0.0013595668 0.0024787032 0.0009378758 -0.008881848 0.010117566 -0.0036812723 -0.00199069 0.006473993 5.3934324e-05 0.0017336324 0.0024407771 0.002770622 0.007074333 0.009112018 -0.0007669371 -0.0032737656 0.004050281 -0.008784743 0.007648134 0.0024834627 0.0069435663 0.002879844 -0.0009693982 0.0007310695 -0.00528028 0.010010652 0.0053188107 0.0034003532 -0.0054434543 -0.009453956 0.008080822 0.0023337733 -0.004796576 -0.008484754 -0.0034207096 0.0011871229 -0.00960654 -0.000113773116 0.0030039733 -0.0096134925 0.00028237977 -0.0065439553 -0.0036427374 -0.0016163782 -0.010359899 -0.0032695183 -0.0066894037 -0.0076693296 0.00090605835 0.0024050253 0.009245762 0.008966619 -0.0062856143 -0.009475867 0.0070751198 0.005918803 0.007168772 -0.0024205598 -0.005977298 -0.003688144 -0.008690735 0.0062187845 -0.00308611 0.00857137 -0.0050129653 0.009919189 -0.00455512 0.008651085 -0.0057982113 -0.007125953 0.0073096626 -0.01015031 -0.009359902 0.006081706 -0.010242247 0.005639589 0.003666789 -0.0063140253 0.0038040027 0.0018186859 0.009434669 0.0034112125 -0.0051662093 -0.0021055473 0.0077999635 -0.0058345012 0.009582304 -0.0037623525 -0.004356816 -0.0042849896
waste 0.002576903 -0.009309435 0.0032557552 -0.0043186434 0.009682805 -0.006033894 -0.00759553 0.00475488 0.00849506 0.0023822277 -0.0022856947 0.0023998588 -0.008919738 -0.003600198 -0.0043035387 0.0017352535 -0.006046175 -0.008382113 -0.0066650803 0.004145761 0.002930548 0.0092753265 0.0027141739 0.0049462076 0.0042403443 0.0048651495 -0.005389468 0.0011229012 -0.00034811726 0.005321636 -0.005596584 -0.00052626507 0.004420645 -0.0049860347 -0.009061257 0.0063284747 -0.000639922 0.00017988126 -0.006571841 0.007732148 0.0010243921 0.0012449588 -0.0007508826 0.0006049354 0.0063596475 -0.009464203 0.0019157226 -0.005879729 0.009679565 0.0047130827 -0.005065487 -0.0016920528 -0.0055601406 0.0086445445 0.00875242 0.0025247848 0.0100263925 -0.0049626017 0.0021171458 -0.004957681 -0.0088041155 -0.0041118697 -0.0011925738 -0.0059790188 -0.0053266343 0.0009756261 6.9737085e-05 -0.007831567 0.0062606256 0.0024792782 -0.009681021 -0.0011450906 -0.007338746 0.0075211306 -0.00046318167 0.007997815 0.005119769 -0.0042331284 -0.0094383005 -0.005892371 0.0085933665 -0.0019605749 -0.000886137 0.0010377049 -0.008662831 0.004504872 -0.00830711 0.010030214 -0.0076386943 0.008177368 -0.0013539756 -0.0016004369 -0.0022419803 0.0012321512 0.003353388 0.0024065918 -0.00027920253 0.007034332 -0.0061808247 -0.007772611
also -0.007431922 0.0066091064 -0.0019758507 -0.00455825 0.004879078 -0.008413196 0.00312975 0.010389944 0.0065884944 -0.003249927 0.0023683186 0.004186466 0.009645039 -0.0023638362 0.0014074323 -0.004246614 -0.0029357804 0.0004153163 0.0022304356 -0.006182392 0.0043620425 -0.004865553 -0.0043505626 -0.0092427535 0.007543416 0.0043998645 -0.0026209948 0.008172797 0.0014483149 -0.009857826 -0.0071676183 -0.0041558133 -0.0070353113 0.007288418 0.0048166313 0.0026691072 -0.00050599687 -0.007594831 0.0057677687 -0.0057395343 -0.002643729 -0.006333292 -0.002413585 -0.009218835 0.003694588 -0.007583231 0.0065011107 -0.0076351147 -0.005771738 0.00029870193 -0.007783607 0.0050859493 -0.0042066383 0.0004592301 0.007564405 0.0034222235 -4.174136e-06 0.0074594426 -0.00058186834 0.005707413 0.0059972475 -0.008013809 0.002020581 -0.0095693115 -0.0020395955 0.008917876 -0.0022938566 -0.0043671676 0.0023213907 0.007990834 0.006406172 -0.006322743 0.007318035 0.007588784 -0.004957731 -0.0010005975 -0.0005934782 -0.009580435 -0.0025939185 0.010094083 -0.0028010455 -0.0079855565 -0.0047340365 -0.008877422 0.0016775363 0.0063031847 0.0007523244 -0.0030341202 0.009937403 -0.009104461 -0.0041213455 -0.0094557395 0.009585004 -0.001713152 -0.004717978 -0.0072937217 0.008363758 -0.0033876484 -0.005530534 0.0037295646
